<?xml version="1.0" encoding="utf-8"?>
<Root>
  <ActivationFunctions>
    <Fn id="0" name="SteepenedSigmoid" prob="1" />
  </ActivationFunctions>
  <Networks>
    <Network id="20339" birthGen="251" fitness="85.739479446411138">
      <Nodes>
        <Node type="bias" id="0" />
        <Node type="in" id="1" />
        <Node type="in" id="2" />
        <Node type="in" id="3" />
        <Node type="in" id="4" />
        <Node type="in" id="5" />
        <Node type="in" id="6" />
        <Node type="out" id="7" />
        <Node type="out" id="8" />
        <Node type="out" id="9" />
        <Node type="out" id="10" />
        <Node type="out" id="11" />
        <Node type="out" id="12" />
        <Node type="hid" id="413" />
        <Node type="hid" id="847" />
        <Node type="hid" id="1496" />
      </Nodes>
      <Connections>
        <Con id="13" src="0" tgt="7" wght="3.1816562887646138" />
        <Con id="14" src="0" tgt="8" wght="2.85120760308045" />
        <Con id="15" src="0" tgt="9" wght="1.9937909575861776" />
        <Con id="16" src="0" tgt="10" wght="-4.6636206269914542" />
        <Con id="17" src="0" tgt="11" wght="-0.21356431694057584" />
        <Con id="18" src="0" tgt="12" wght="-4.9387881673735" />
        <Con id="19" src="1" tgt="7" wght="2.4590862125792223" />
        <Con id="20" src="1" tgt="8" wght="-2.054391594959414" />
        <Con id="21" src="1" tgt="9" wght="-1.9653815696251407" />
        <Con id="22" src="1" tgt="10" wght="-0.63325135135010491" />
        <Con id="23" src="1" tgt="11" wght="4.4786886949039868" />
        <Con id="24" src="1" tgt="12" wght="-5" />
        <Con id="25" src="2" tgt="7" wght="-3.6124448041140882" />
        <Con id="26" src="2" tgt="8" wght="2.7346049999512396" />
        <Con id="27" src="2" tgt="9" wght="0.88898713152459663" />
        <Con id="28" src="2" tgt="10" wght="4.689826276153326" />
        <Con id="29" src="2" tgt="11" wght="-4.0167760158132761" />
        <Con id="30" src="2" tgt="12" wght="5" />
        <Con id="31" src="3" tgt="7" wght="-1.8373882817104459" />
        <Con id="32" src="3" tgt="8" wght="-2.0394532480023959" />
        <Con id="33" src="3" tgt="9" wght="1.63639834002069" />
        <Con id="34" src="3" tgt="10" wght="-2.6681192780583145" />
        <Con id="35" src="3" tgt="11" wght="3.4597076949007457" />
        <Con id="36" src="3" tgt="12" wght="-1.0470194305032614" />
        <Con id="37" src="4" tgt="7" wght="-0.13131332796574172" />
        <Con id="38" src="4" tgt="8" wght="-2.1177697682806795" />
        <Con id="39" src="4" tgt="9" wght="-1.9280041233128653" />
        <Con id="41" src="4" tgt="11" wght="3.9758354986692117" />
        <Con id="42" src="4" tgt="12" wght="0.49270350290587256" />
        <Con id="43" src="5" tgt="7" wght="2.7806074706929493" />
        <Con id="44" src="5" tgt="8" wght="3.4028832478097892" />
        <Con id="45" src="5" tgt="9" wght="-1.3856177133293912" />
        <Con id="46" src="5" tgt="10" wght="-2.9974912454700013" />
        <Con id="47" src="5" tgt="11" wght="-2.1162257344225903" />
        <Con id="49" src="6" tgt="7" wght="-4.086740193888545" />
        <Con id="50" src="6" tgt="8" wght="0.37398296506548245" />
        <Con id="51" src="6" tgt="9" wght="-2.5694778611359661" />
        <Con id="52" src="6" tgt="10" wght="-2.8787547245455021" />
        <Con id="53" src="6" tgt="11" wght="4.8516178085975277" />
        <Con id="54" src="6" tgt="12" wght="-3.1309569335597884" />
        <Con id="95" src="9" tgt="12" wght="4.9338990585963334" />
        <Con id="101" src="11" tgt="8" wght="-2.3039588469858066" />
        <Con id="111" src="8" tgt="8" wght="0.82885713264724314" />
        <Con id="125" src="10" tgt="9" wght="-0.63793876181735576" />
        <Con id="143" src="7" tgt="8" wght="-0.23810413374897332" />
        <Con id="259" src="10" tgt="7" wght="-2.8846957207766679" />
        <Con id="415" src="413" tgt="12" wght="3.5561365057203642" />
        <Con id="503" src="413" tgt="11" wght="-3.849006561747967" />
        <Con id="521" src="413" tgt="8" wght="-3.75876954916184" />
        <Con id="529" src="12" tgt="413" wght="4.5214738929644227" />
        <Con id="848" src="2" tgt="847" wght="1.1344297245732826" />
        <Con id="849" src="847" tgt="413" wght="4.9954821034553172" />
        <Con id="1497" src="4" tgt="1496" wght="-1.3869141120773907" />
        <Con id="1498" src="1496" tgt="10" wght="5" />
      </Connections>
    </Network>
    <Network id="20350" birthGen="251" fitness="333.28050460815427">
      <Nodes>
        <Node type="bias" id="0" />
        <Node type="in" id="1" />
        <Node type="in" id="2" />
        <Node type="in" id="3" />
        <Node type="in" id="4" />
        <Node type="in" id="5" />
        <Node type="in" id="6" />
        <Node type="out" id="7" />
        <Node type="out" id="8" />
        <Node type="out" id="9" />
        <Node type="out" id="10" />
        <Node type="out" id="11" />
        <Node type="out" id="12" />
        <Node type="hid" id="278" />
        <Node type="hid" id="2016" />
      </Nodes>
      <Connections>
        <Con id="13" src="0" tgt="7" wght="-4.5884537165572326" />
        <Con id="14" src="0" tgt="8" wght="-0.35468214293154138" />
        <Con id="15" src="0" tgt="9" wght="1.3734814274989833" />
        <Con id="16" src="0" tgt="10" wght="5" />
        <Con id="17" src="0" tgt="11" wght="3.0749974544033343" />
        <Con id="18" src="0" tgt="12" wght="0.56185330734922811" />
        <Con id="19" src="1" tgt="7" wght="5" />
        <Con id="20" src="1" tgt="8" wght="-4.1700019165755338" />
        <Con id="21" src="1" tgt="9" wght="-2.4947099023598973" />
        <Con id="22" src="1" tgt="10" wght="-2.9105159777401486" />
        <Con id="23" src="1" tgt="11" wght="-3.883492959699911" />
        <Con id="24" src="1" tgt="12" wght="4.1776395913534285" />
        <Con id="25" src="2" tgt="7" wght="-3.2158266579636128" />
        <Con id="26" src="2" tgt="8" wght="3.2390879211045926" />
        <Con id="27" src="2" tgt="9" wght="-2.8688222863567843" />
        <Con id="28" src="2" tgt="10" wght="2.045148808504357" />
        <Con id="29" src="2" tgt="11" wght="-5" />
        <Con id="30" src="2" tgt="12" wght="5" />
        <Con id="31" src="3" tgt="7" wght="-5" />
        <Con id="32" src="3" tgt="8" wght="-2.8888228925561021" />
        <Con id="33" src="3" tgt="9" wght="4.9649836185448919" />
        <Con id="34" src="3" tgt="10" wght="-2.18210760559229" />
        <Con id="35" src="3" tgt="11" wght="0.47319102846962047" />
        <Con id="36" src="3" tgt="12" wght="-0.92420774987983223" />
        <Con id="37" src="4" tgt="7" wght="2.7886587549722406" />
        <Con id="38" src="4" tgt="8" wght="0.69971982092312068" />
        <Con id="39" src="4" tgt="9" wght="-1.7311477611239947" />
        <Con id="40" src="4" tgt="10" wght="5" />
        <Con id="41" src="4" tgt="11" wght="-1.4947046631392058" />
        <Con id="42" src="4" tgt="12" wght="-2.3464545139372892" />
        <Con id="43" src="5" tgt="7" wght="3.6394375888630748" />
        <Con id="44" src="5" tgt="8" wght="1.9580868968522664" />
        <Con id="45" src="5" tgt="9" wght="-0.73499056022478537" />
        <Con id="47" src="5" tgt="11" wght="0.71556559947700049" />
        <Con id="48" src="5" tgt="12" wght="3.6511293880590463" />
        <Con id="49" src="6" tgt="7" wght="3.46380083444164" />
        <Con id="50" src="6" tgt="8" wght="0.0090296649180103827" />
        <Con id="52" src="6" tgt="10" wght="-3.7987356992055661" />
        <Con id="53" src="6" tgt="11" wght="-0.89085071913156566" />
        <Con id="54" src="6" tgt="12" wght="0.27795612799468028" />
        <Con id="85" src="9" tgt="11" wght="-2.2196614168057089" />
        <Con id="93" src="7" tgt="9" wght="-4.5547174270964295" />
        <Con id="95" src="9" tgt="12" wght="-3.2283943938091397" />
        <Con id="158" src="10" tgt="11" wght="1.9671947021700915" />
        <Con id="166" src="9" tgt="10" wght="-2.4914594897664055" />
        <Con id="212" src="8" tgt="9" wght="1.2341992682233465" />
        <Con id="279" src="6" tgt="278" wght="-4.7169465970129423" />
        <Con id="280" src="278" tgt="9" wght="5" />
        <Con id="284" src="7" tgt="12" wght="-1.8611072156482906" />
        <Con id="408" src="12" tgt="278" wght="3.9592546347515105" />
        <Con id="447" src="10" tgt="278" wght="-2.4733502138406038" />
        <Con id="470" src="278" tgt="10" wght="2.1127326485915967" />
        <Con id="493" src="2" tgt="278" wght="-4.907690747641027" />
        <Con id="540" src="1" tgt="278" wght="-4.1463965897962138" />
        <Con id="1173" src="4" tgt="278" wght="-3.0632552517146503" />
        <Con id="2017" src="5" tgt="2016" wght="-4.9742906900222605" />
        <Con id="2018" src="2016" tgt="10" wght="5" />
      </Connections>
    </Network>
    <Network id="20340" birthGen="251" fitness="348.53158493041991">
      <Nodes>
        <Node type="bias" id="0" />
        <Node type="in" id="1" />
        <Node type="in" id="2" />
        <Node type="in" id="3" />
        <Node type="in" id="4" />
        <Node type="in" id="5" />
        <Node type="in" id="6" />
        <Node type="out" id="7" />
        <Node type="out" id="8" />
        <Node type="out" id="9" />
        <Node type="out" id="10" />
        <Node type="out" id="11" />
        <Node type="out" id="12" />
        <Node type="hid" id="278" />
        <Node type="hid" id="2016" />
      </Nodes>
      <Connections>
        <Con id="13" src="0" tgt="7" wght="-4.5884537165572326" />
        <Con id="14" src="0" tgt="8" wght="-0.35468214293154138" />
        <Con id="15" src="0" tgt="9" wght="1.3734814274989833" />
        <Con id="16" src="0" tgt="10" wght="5" />
        <Con id="17" src="0" tgt="11" wght="3.0749974544033343" />
        <Con id="18" src="0" tgt="12" wght="0.56185330734922811" />
        <Con id="19" src="1" tgt="7" wght="5" />
        <Con id="20" src="1" tgt="8" wght="-4.1700019165755338" />
        <Con id="21" src="1" tgt="9" wght="-2.4947099023598973" />
        <Con id="22" src="1" tgt="10" wght="-2.9105159777401486" />
        <Con id="23" src="1" tgt="11" wght="-3.883492959699911" />
        <Con id="24" src="1" tgt="12" wght="4.1776395913534285" />
        <Con id="25" src="2" tgt="7" wght="-3.2158266579636128" />
        <Con id="26" src="2" tgt="8" wght="3.2390879211045926" />
        <Con id="27" src="2" tgt="9" wght="-2.8688222863567843" />
        <Con id="28" src="2" tgt="10" wght="2.045148808504357" />
        <Con id="29" src="2" tgt="11" wght="-5" />
        <Con id="30" src="2" tgt="12" wght="5" />
        <Con id="31" src="3" tgt="7" wght="-5" />
        <Con id="32" src="3" tgt="8" wght="-2.8888228925561021" />
        <Con id="33" src="3" tgt="9" wght="4.9649836185448919" />
        <Con id="34" src="3" tgt="10" wght="-2.18210760559229" />
        <Con id="35" src="3" tgt="11" wght="0.47319102846962047" />
        <Con id="36" src="3" tgt="12" wght="-0.92420774987983223" />
        <Con id="37" src="4" tgt="7" wght="2.7886587549722406" />
        <Con id="38" src="4" tgt="8" wght="0.69971982092312068" />
        <Con id="39" src="4" tgt="9" wght="-1.7311477611239947" />
        <Con id="40" src="4" tgt="10" wght="5" />
        <Con id="41" src="4" tgt="11" wght="-1.4947046631392058" />
        <Con id="42" src="4" tgt="12" wght="-2.3464545139372892" />
        <Con id="43" src="5" tgt="7" wght="3.6394375888630748" />
        <Con id="44" src="5" tgt="8" wght="1.9580868968522664" />
        <Con id="45" src="5" tgt="9" wght="-0.73499056022478537" />
        <Con id="47" src="5" tgt="11" wght="0.71556559947700049" />
        <Con id="48" src="5" tgt="12" wght="3.6511293880590463" />
        <Con id="49" src="6" tgt="7" wght="3.46380083444164" />
        <Con id="50" src="6" tgt="8" wght="0.0090296649180103827" />
        <Con id="52" src="6" tgt="10" wght="-3.7987356992055661" />
        <Con id="53" src="6" tgt="11" wght="-0.89085071913156566" />
        <Con id="54" src="6" tgt="12" wght="0.27795612799468028" />
        <Con id="85" src="9" tgt="11" wght="-1.0603283332434064" />
        <Con id="93" src="7" tgt="9" wght="-4.5547174270964295" />
        <Con id="95" src="9" tgt="12" wght="-3.2283943938091397" />
        <Con id="158" src="10" tgt="11" wght="1.9671947021700915" />
        <Con id="166" src="9" tgt="10" wght="-2.4914594897664055" />
        <Con id="212" src="8" tgt="9" wght="1.2341992682233465" />
        <Con id="279" src="6" tgt="278" wght="-4.7169465970129423" />
        <Con id="280" src="278" tgt="9" wght="5" />
        <Con id="284" src="7" tgt="12" wght="-1.8611072156482906" />
        <Con id="408" src="12" tgt="278" wght="3.9592546347515105" />
        <Con id="447" src="10" tgt="278" wght="-2.4733502138406038" />
        <Con id="470" src="278" tgt="10" wght="2.1127326485915967" />
        <Con id="493" src="2" tgt="278" wght="-4.907690747641027" />
        <Con id="540" src="1" tgt="278" wght="-4.1463965897962138" />
        <Con id="1173" src="4" tgt="278" wght="-3.0632552517146503" />
        <Con id="2017" src="5" tgt="2016" wght="-4.9742906900222605" />
        <Con id="2018" src="2016" tgt="10" wght="5" />
      </Connections>
    </Network>
    <Network id="20348" birthGen="251" fitness="381.96992340087888">
      <Nodes>
        <Node type="bias" id="0" />
        <Node type="in" id="1" />
        <Node type="in" id="2" />
        <Node type="in" id="3" />
        <Node type="in" id="4" />
        <Node type="in" id="5" />
        <Node type="in" id="6" />
        <Node type="out" id="7" />
        <Node type="out" id="8" />
        <Node type="out" id="9" />
        <Node type="out" id="10" />
        <Node type="out" id="11" />
        <Node type="out" id="12" />
        <Node type="hid" id="278" />
        <Node type="hid" id="2016" />
      </Nodes>
      <Connections>
        <Con id="13" src="0" tgt="7" wght="-4.5884537165572326" />
        <Con id="14" src="0" tgt="8" wght="-0.35468214293154138" />
        <Con id="15" src="0" tgt="9" wght="1.3734814274989833" />
        <Con id="16" src="0" tgt="10" wght="5" />
        <Con id="17" src="0" tgt="11" wght="3.0749974544033343" />
        <Con id="18" src="0" tgt="12" wght="0.56185330734922811" />
        <Con id="19" src="1" tgt="7" wght="5" />
        <Con id="20" src="1" tgt="8" wght="-4.1700019165755338" />
        <Con id="21" src="1" tgt="9" wght="-2.4947099023598973" />
        <Con id="22" src="1" tgt="10" wght="-2.9105159777401486" />
        <Con id="23" src="1" tgt="11" wght="-3.883492959699911" />
        <Con id="24" src="1" tgt="12" wght="4.1776395913534285" />
        <Con id="25" src="2" tgt="7" wght="-3.2158266579636128" />
        <Con id="26" src="2" tgt="8" wght="3.2390879211045926" />
        <Con id="27" src="2" tgt="9" wght="-2.8688222863567843" />
        <Con id="28" src="2" tgt="10" wght="2.045148808504357" />
        <Con id="29" src="2" tgt="11" wght="-5" />
        <Con id="30" src="2" tgt="12" wght="5" />
        <Con id="31" src="3" tgt="7" wght="-5" />
        <Con id="32" src="3" tgt="8" wght="-2.8888228925561021" />
        <Con id="33" src="3" tgt="9" wght="4.9649836185448919" />
        <Con id="34" src="3" tgt="10" wght="-2.18210760559229" />
        <Con id="35" src="3" tgt="11" wght="0.47319102846962047" />
        <Con id="36" src="3" tgt="12" wght="-0.92420774987983223" />
        <Con id="37" src="4" tgt="7" wght="2.7886587549722406" />
        <Con id="38" src="4" tgt="8" wght="0.69971982092312068" />
        <Con id="39" src="4" tgt="9" wght="-1.7311477611239947" />
        <Con id="40" src="4" tgt="10" wght="5" />
        <Con id="41" src="4" tgt="11" wght="-1.4947046631392058" />
        <Con id="42" src="4" tgt="12" wght="-2.3464545139372892" />
        <Con id="43" src="5" tgt="7" wght="3.6394375888630748" />
        <Con id="44" src="5" tgt="8" wght="1.9580868968522664" />
        <Con id="45" src="5" tgt="9" wght="-0.73128560262161746" />
        <Con id="47" src="5" tgt="11" wght="0.71556559947700049" />
        <Con id="48" src="5" tgt="12" wght="3.6511293880590463" />
        <Con id="49" src="6" tgt="7" wght="3.46380083444164" />
        <Con id="50" src="6" tgt="8" wght="-0.037802517184809814" />
        <Con id="52" src="6" tgt="10" wght="-3.7987356992055661" />
        <Con id="53" src="6" tgt="11" wght="-0.89085071913156566" />
        <Con id="54" src="6" tgt="12" wght="0.27795612799468028" />
        <Con id="85" src="9" tgt="11" wght="-2.2196614168057089" />
        <Con id="93" src="7" tgt="9" wght="-4.5547174270964295" />
        <Con id="95" src="9" tgt="12" wght="-3.2283943938091397" />
        <Con id="158" src="10" tgt="11" wght="1.9671947021700915" />
        <Con id="166" src="9" tgt="10" wght="-2.4914594897664055" />
        <Con id="212" src="8" tgt="9" wght="1.2341992682233465" />
        <Con id="279" src="6" tgt="278" wght="-4.7169465970129423" />
        <Con id="280" src="278" tgt="9" wght="5" />
        <Con id="284" src="7" tgt="12" wght="-1.8611072156482906" />
        <Con id="408" src="12" tgt="278" wght="3.9592546347515105" />
        <Con id="447" src="10" tgt="278" wght="-2.4733502138406038" />
        <Con id="470" src="278" tgt="10" wght="2.1127326485915967" />
        <Con id="493" src="2" tgt="278" wght="-4.907690747641027" />
        <Con id="540" src="1" tgt="278" wght="-4.1463965897962138" />
        <Con id="1173" src="4" tgt="278" wght="-3.0632552517146503" />
        <Con id="2017" src="5" tgt="2016" wght="-4.9742906900222605" />
        <Con id="2018" src="2016" tgt="10" wght="5" />
      </Connections>
    </Network>
    <Network id="20352" birthGen="251" fitness="412.32124099731448">
      <Nodes>
        <Node type="bias" id="0" />
        <Node type="in" id="1" />
        <Node type="in" id="2" />
        <Node type="in" id="3" />
        <Node type="in" id="4" />
        <Node type="in" id="5" />
        <Node type="in" id="6" />
        <Node type="out" id="7" />
        <Node type="out" id="8" />
        <Node type="out" id="9" />
        <Node type="out" id="10" />
        <Node type="out" id="11" />
        <Node type="out" id="12" />
        <Node type="hid" id="278" />
      </Nodes>
      <Connections>
        <Con id="13" src="0" tgt="7" wght="-4.5884537165572326" />
        <Con id="14" src="0" tgt="8" wght="-0.35468214293154138" />
        <Con id="15" src="0" tgt="9" wght="1.3734814274989833" />
        <Con id="16" src="0" tgt="10" wght="4.9822056683164009" />
        <Con id="17" src="0" tgt="11" wght="2.403153637520016" />
        <Con id="18" src="0" tgt="12" wght="0.55754353122443789" />
        <Con id="19" src="1" tgt="7" wght="4.9857221954192568" />
        <Con id="20" src="1" tgt="8" wght="-4.9136279590748817" />
        <Con id="21" src="1" tgt="9" wght="-2.4947099023598973" />
        <Con id="22" src="1" tgt="10" wght="-2.9461711737746459" />
        <Con id="23" src="1" tgt="11" wght="-3.883492959699911" />
        <Con id="24" src="1" tgt="12" wght="4.1776395913534285" />
        <Con id="25" src="2" tgt="7" wght="-2.9382401133741869" />
        <Con id="26" src="2" tgt="8" wght="3.2142776681431813" />
        <Con id="27" src="2" tgt="9" wght="-2.4038958307911011" />
        <Con id="28" src="2" tgt="10" wght="2.045148808504357" />
        <Con id="29" src="2" tgt="11" wght="-4.5859649460337808" />
        <Con id="30" src="2" tgt="12" wght="5" />
        <Con id="31" src="3" tgt="7" wght="-5" />
        <Con id="32" src="3" tgt="8" wght="-2.0428730547428131" />
        <Con id="33" src="3" tgt="9" wght="4.9649836185448919" />
        <Con id="34" src="3" tgt="10" wght="-2.18210760559229" />
        <Con id="35" src="3" tgt="11" wght="0.47319102846962047" />
        <Con id="36" src="3" tgt="12" wght="-1.2899988270082281" />
        <Con id="37" src="4" tgt="7" wght="2.7886587549722406" />
        <Con id="38" src="4" tgt="8" wght="0.69971982092312068" />
        <Con id="39" src="4" tgt="9" wght="-1.3830858748406172" />
        <Con id="40" src="4" tgt="10" wght="5" />
        <Con id="41" src="4" tgt="11" wght="-2.7865141116077345" />
        <Con id="42" src="4" tgt="12" wght="-2.3448940338522188" />
        <Con id="43" src="5" tgt="7" wght="2.8178152075079757" />
        <Con id="44" src="5" tgt="8" wght="1.9580868968522664" />
        <Con id="45" src="5" tgt="9" wght="-0.73499056022478537" />
        <Con id="46" src="5" tgt="10" wght="-4.3217964748562245" />
        <Con id="47" src="5" tgt="11" wght="0.71556559947700049" />
        <Con id="48" src="5" tgt="12" wght="4.6674479966399494" />
        <Con id="49" src="6" tgt="7" wght="4.2445041515963728" />
        <Con id="50" src="6" tgt="8" wght="0.2609934495325672" />
        <Con id="52" src="6" tgt="10" wght="-3.8338420163515807" />
        <Con id="53" src="6" tgt="11" wght="-0.90853279464872383" />
        <Con id="54" src="6" tgt="12" wght="-0.2703095272578856" />
        <Con id="55" src="9" tgt="7" wght="0.79545957603453687" />
        <Con id="85" src="9" tgt="11" wght="-1.2382617593626772" />
        <Con id="93" src="7" tgt="9" wght="-4.5547174270964295" />
        <Con id="158" src="10" tgt="11" wght="4.0791144519679845" />
        <Con id="166" src="9" tgt="10" wght="-2.4954841307582232" />
        <Con id="212" src="8" tgt="9" wght="1.4621298834569205" />
        <Con id="279" src="6" tgt="278" wght="-4.7169465970129423" />
        <Con id="280" src="278" tgt="9" wght="5" />
        <Con id="284" src="7" tgt="12" wght="-1.0542325579888385" />
        <Con id="408" src="12" tgt="278" wght="4.4137529431942646" />
        <Con id="470" src="278" tgt="10" wght="2.1127326485915967" />
        <Con id="493" src="2" tgt="278" wght="-1.4000229384250511" />
        <Con id="1173" src="4" tgt="278" wght="-3.0632552517146503" />
      </Connections>
    </Network>
    <Network id="20297" birthGen="250" fitness="420.36369018554689">
      <Nodes>
        <Node type="bias" id="0" />
        <Node type="in" id="1" />
        <Node type="in" id="2" />
        <Node type="in" id="3" />
        <Node type="in" id="4" />
        <Node type="in" id="5" />
        <Node type="in" id="6" />
        <Node type="out" id="7" />
        <Node type="out" id="8" />
        <Node type="out" id="9" />
        <Node type="out" id="10" />
        <Node type="out" id="11" />
        <Node type="out" id="12" />
        <Node type="hid" id="278" />
      </Nodes>
      <Connections>
        <Con id="13" src="0" tgt="7" wght="-4.5945199861262944" />
        <Con id="14" src="0" tgt="8" wght="-0.35468214293154138" />
        <Con id="15" src="0" tgt="9" wght="1.3734814274989833" />
        <Con id="16" src="0" tgt="10" wght="5" />
        <Con id="17" src="0" tgt="11" wght="3.0749974544033343" />
        <Con id="18" src="0" tgt="12" wght="0.56185330734922811" />
        <Con id="19" src="1" tgt="7" wght="5" />
        <Con id="20" src="1" tgt="8" wght="-4.1700019165755338" />
        <Con id="21" src="1" tgt="9" wght="-2.4947099023598973" />
        <Con id="22" src="1" tgt="10" wght="-2.9105159777401486" />
        <Con id="23" src="1" tgt="11" wght="-3.883492959699911" />
        <Con id="24" src="1" tgt="12" wght="4.1776395913534285" />
        <Con id="25" src="2" tgt="7" wght="-3.2158266579636128" />
        <Con id="26" src="2" tgt="8" wght="3.2390879211045926" />
        <Con id="27" src="2" tgt="9" wght="-2.8688222863567843" />
        <Con id="28" src="2" tgt="10" wght="2.045148808504357" />
        <Con id="29" src="2" tgt="11" wght="-5" />
        <Con id="30" src="2" tgt="12" wght="5" />
        <Con id="31" src="3" tgt="7" wght="-5" />
        <Con id="32" src="3" tgt="8" wght="-2.8888228925561021" />
        <Con id="33" src="3" tgt="9" wght="4.9649836185448919" />
        <Con id="34" src="3" tgt="10" wght="-2.18210760559229" />
        <Con id="35" src="3" tgt="11" wght="0.47319102846962047" />
        <Con id="36" src="3" tgt="12" wght="-0.92420774987983223" />
        <Con id="37" src="4" tgt="7" wght="2.7733350144463822" />
        <Con id="38" src="4" tgt="8" wght="0.69971982092312068" />
        <Con id="39" src="4" tgt="9" wght="-1.7233584086705063" />
        <Con id="40" src="4" tgt="10" wght="5" />
        <Con id="41" src="4" tgt="11" wght="-1.4947046631392058" />
        <Con id="42" src="4" tgt="12" wght="-2.3448940338522188" />
        <Con id="43" src="5" tgt="7" wght="4.0608568841744273" />
        <Con id="44" src="5" tgt="8" wght="1.9580868968522664" />
        <Con id="45" src="5" tgt="9" wght="-0.73499056022478537" />
        <Con id="46" src="5" tgt="10" wght="-5" />
        <Con id="47" src="5" tgt="11" wght="0.71556559947700049" />
        <Con id="48" src="5" tgt="12" wght="3.6511293880590463" />
        <Con id="49" src="6" tgt="7" wght="3.46380083444164" />
        <Con id="50" src="6" tgt="8" wght="0.0090296649180103827" />
        <Con id="52" src="6" tgt="10" wght="-3.6495128199946829" />
        <Con id="53" src="6" tgt="11" wght="-0.89085071913156566" />
        <Con id="54" src="6" tgt="12" wght="0.27795612799468028" />
        <Con id="85" src="9" tgt="11" wght="-2.2196614168057089" />
        <Con id="93" src="7" tgt="9" wght="-4.5547174270964295" />
        <Con id="95" src="9" tgt="12" wght="-3.2283943938091397" />
        <Con id="158" src="10" tgt="11" wght="1.9671947021700915" />
        <Con id="166" src="9" tgt="10" wght="-2.499986314214766" />
        <Con id="212" src="8" tgt="9" wght="1.2341992682233465" />
        <Con id="279" src="6" tgt="278" wght="-4.7169465970129423" />
        <Con id="280" src="278" tgt="9" wght="5" />
        <Con id="284" src="7" tgt="12" wght="-1.8611072156482906" />
        <Con id="408" src="12" tgt="278" wght="3.9592546347515105" />
        <Con id="470" src="278" tgt="10" wght="2.1127326485915967" />
        <Con id="493" src="2" tgt="278" wght="-4.907690747641027" />
        <Con id="540" src="1" tgt="278" wght="-4.1463965897962138" />
        <Con id="1173" src="4" tgt="278" wght="-3.0632552517146503" />
      </Connections>
    </Network>
    <Network id="20332" birthGen="250" fitness="430.55885086059573">
      <Nodes>
        <Node type="bias" id="0" />
        <Node type="in" id="1" />
        <Node type="in" id="2" />
        <Node type="in" id="3" />
        <Node type="in" id="4" />
        <Node type="in" id="5" />
        <Node type="in" id="6" />
        <Node type="out" id="7" />
        <Node type="out" id="8" />
        <Node type="out" id="9" />
        <Node type="out" id="10" />
        <Node type="out" id="11" />
        <Node type="out" id="12" />
        <Node type="hid" id="278" />
      </Nodes>
      <Connections>
        <Con id="13" src="0" tgt="7" wght="-4.5884537165572326" />
        <Con id="14" src="0" tgt="8" wght="-0.35468214293154138" />
        <Con id="15" src="0" tgt="9" wght="1.3734814274989833" />
        <Con id="16" src="0" tgt="10" wght="5" />
        <Con id="17" src="0" tgt="11" wght="3.0749974544033343" />
        <Con id="18" src="0" tgt="12" wght="0.56185330734922811" />
        <Con id="19" src="1" tgt="7" wght="5" />
        <Con id="20" src="1" tgt="8" wght="-5" />
        <Con id="21" src="1" tgt="9" wght="-2.4947099023598973" />
        <Con id="22" src="1" tgt="10" wght="-2.9105159777401486" />
        <Con id="23" src="1" tgt="11" wght="-3.883492959699911" />
        <Con id="24" src="1" tgt="12" wght="4.4471826531913932" />
        <Con id="25" src="2" tgt="7" wght="-4.2995794897370985" />
        <Con id="26" src="2" tgt="8" wght="3.2390879211045926" />
        <Con id="27" src="2" tgt="9" wght="-2.8688222863567843" />
        <Con id="28" src="2" tgt="10" wght="2.045148808504357" />
        <Con id="29" src="2" tgt="11" wght="-5" />
        <Con id="30" src="2" tgt="12" wght="5" />
        <Con id="31" src="3" tgt="7" wght="-5" />
        <Con id="32" src="3" tgt="8" wght="-3.3644186059641137" />
        <Con id="33" src="3" tgt="9" wght="4.9649836185448919" />
        <Con id="34" src="3" tgt="10" wght="-2.18210760559229" />
        <Con id="35" src="3" tgt="11" wght="0.47319102846962047" />
        <Con id="36" src="3" tgt="12" wght="-0.92420774987983223" />
        <Con id="37" src="4" tgt="7" wght="2.7886587549722406" />
        <Con id="38" src="4" tgt="8" wght="0.69971982092312068" />
        <Con id="39" src="4" tgt="9" wght="-1.7311477611239947" />
        <Con id="40" src="4" tgt="10" wght="5" />
        <Con id="41" src="4" tgt="11" wght="-1.5076670668312575" />
        <Con id="42" src="4" tgt="12" wght="-2.3448940338522188" />
        <Con id="43" src="5" tgt="7" wght="3.6394375888630748" />
        <Con id="44" src="5" tgt="8" wght="1.9580868968522664" />
        <Con id="45" src="5" tgt="9" wght="-0.73499056022478537" />
        <Con id="46" src="5" tgt="10" wght="-4.9742906900222605" />
        <Con id="47" src="5" tgt="11" wght="0.70079461129657628" />
        <Con id="48" src="5" tgt="12" wght="3.6511293880590463" />
        <Con id="49" src="6" tgt="7" wght="3.46380083444164" />
        <Con id="50" src="6" tgt="8" wght="0.0090296649180103827" />
        <Con id="52" src="6" tgt="10" wght="-3.7987356992055661" />
        <Con id="53" src="6" tgt="11" wght="-0.89085071913156566" />
        <Con id="54" src="6" tgt="12" wght="0.27795612799468028" />
        <Con id="85" src="9" tgt="11" wght="-2.2196614168057089" />
        <Con id="93" src="7" tgt="9" wght="-4.5547174270964295" />
        <Con id="95" src="9" tgt="12" wght="-3.2283943938091397" />
        <Con id="158" src="10" tgt="11" wght="2.6042404844554965" />
        <Con id="166" src="9" tgt="10" wght="-2.499986314214766" />
        <Con id="212" src="8" tgt="9" wght="1.2341992682233465" />
        <Con id="279" src="6" tgt="278" wght="-4.7169465970129423" />
        <Con id="280" src="278" tgt="9" wght="5" />
        <Con id="284" src="7" tgt="12" wght="-1.8611072156482906" />
        <Con id="408" src="12" tgt="278" wght="3.9592546347515105" />
        <Con id="470" src="278" tgt="10" wght="2.1127326485915967" />
        <Con id="493" src="2" tgt="278" wght="-4.907690747641027" />
        <Con id="540" src="1" tgt="278" wght="-4.1609637586058605" />
        <Con id="1173" src="4" tgt="278" wght="-3.0632552517146503" />
      </Connections>
    </Network>
    <Network id="20385" birthGen="251" fitness="318.13432083129885">
      <Nodes>
        <Node type="bias" id="0" />
        <Node type="in" id="1" />
        <Node type="in" id="2" />
        <Node type="in" id="3" />
        <Node type="in" id="4" />
        <Node type="in" id="5" />
        <Node type="in" id="6" />
        <Node type="out" id="7" />
        <Node type="out" id="8" />
        <Node type="out" id="9" />
        <Node type="out" id="10" />
        <Node type="out" id="11" />
        <Node type="out" id="12" />
        <Node type="hid" id="278" />
        <Node type="hid" id="692" />
        <Node type="hid" id="1296" />
        <Node type="hid" id="1327" />
        <Node type="hid" id="1717" />
      </Nodes>
      <Connections>
        <Con id="13" src="0" tgt="7" wght="-4.5911889649638145" />
        <Con id="14" src="0" tgt="8" wght="-0.33998966217041016" />
        <Con id="15" src="0" tgt="9" wght="2.1097199154573709" />
        <Con id="16" src="0" tgt="10" wght="4.4524366016048731" />
        <Con id="18" src="0" tgt="12" wght="-0.93583900947123766" />
        <Con id="19" src="1" tgt="7" wght="-4.9710716238316826" />
        <Con id="20" src="1" tgt="8" wght="-3.8572477229796207" />
        <Con id="21" src="1" tgt="9" wght="0.45278463486257603" />
        <Con id="22" src="1" tgt="10" wght="-3.6124001871964633" />
        <Con id="23" src="1" tgt="11" wght="-5" />
        <Con id="24" src="1" tgt="12" wght="5" />
        <Con id="25" src="2" tgt="7" wght="-4.9165183981700631" />
        <Con id="26" src="2" tgt="8" wght="5" />
        <Con id="27" src="2" tgt="9" wght="5" />
        <Con id="28" src="2" tgt="10" wght="3.3199316016033977" />
        <Con id="30" src="2" tgt="12" wght="3.2454698695596429" />
        <Con id="31" src="3" tgt="7" wght="-4.814565062799347" />
        <Con id="32" src="3" tgt="8" wght="0.063611271088412857" />
        <Con id="33" src="3" tgt="9" wght="0.64982986638108475" />
        <Con id="34" src="3" tgt="10" wght="-1.3522882618891865" />
        <Con id="35" src="3" tgt="11" wght="-3.3775238176723281" />
        <Con id="36" src="3" tgt="12" wght="2.1463112172765166" />
        <Con id="37" src="4" tgt="7" wght="4.3242649050463289" />
        <Con id="38" src="4" tgt="8" wght="0.32312122344729088" />
        <Con id="39" src="4" tgt="9" wght="1.8173026929064671" />
        <Con id="40" src="4" tgt="10" wght="5" />
        <Con id="41" src="4" tgt="11" wght="-3.3467860676828862" />
        <Con id="42" src="4" tgt="12" wght="-4.5363697843299695" />
        <Con id="43" src="5" tgt="7" wght="5" />
        <Con id="44" src="5" tgt="8" wght="1.9622980724614951" />
        <Con id="45" src="5" tgt="9" wght="-1.1898250040378551" />
        <Con id="46" src="5" tgt="10" wght="-3.5575016448224357" />
        <Con id="47" src="5" tgt="11" wght="-0.74507895319638773" />
        <Con id="49" src="6" tgt="7" wght="4.0882774434989173" />
        <Con id="50" src="6" tgt="8" wght="0.31437248979501836" />
        <Con id="52" src="6" tgt="10" wght="-3.945499392699038" />
        <Con id="53" src="6" tgt="11" wght="-3.1305122748930088" />
        <Con id="85" src="9" tgt="11" wght="-3.799990218856995" />
        <Con id="93" src="7" tgt="9" wght="-4.717640222686792" />
        <Con id="124" src="9" tgt="9" wght="-2.5056664534166111" />
        <Con id="279" src="6" tgt="278" wght="-5" />
        <Con id="280" src="278" tgt="9" wght="4.019487764813868" />
        <Con id="284" src="7" tgt="12" wght="-1.8565167416175785" />
        <Con id="408" src="12" tgt="278" wght="2.8825098844063848" />
        <Con id="470" src="278" tgt="10" wght="-3.7572883442044258" />
        <Con id="614" src="0" tgt="278" wght="-2.4972710909161244" />
        <Con id="667" src="11" tgt="278" wght="-4.7922551118493786" />
        <Con id="693" src="6" tgt="692" wght="-0.7840435682945549" />
        <Con id="694" src="692" tgt="12" wght="4.66474317734025" />
        <Con id="1297" src="0" tgt="1296" wght="4.2143662345162785" />
        <Con id="1298" src="1296" tgt="11" wght="5" />
        <Con id="1328" src="2" tgt="1327" wght="-3.1775500725686219" />
        <Con id="1329" src="1327" tgt="11" wght="4.99224747486422" />
        <Con id="1538" src="4" tgt="1327" wght="1.7602129078635964" />
        <Con id="1718" src="5" tgt="1717" wght="0.534648303873837" />
        <Con id="1719" src="1717" tgt="12" wght="4.6498728044443709" />
        <Con id="1826" src="8" tgt="692" wght="1.4857835369184613" />
        <Con id="2004" src="1717" tgt="1296" wght="-3.3357743686065078" />
      </Connections>
    </Network>
    <Network id="20403" birthGen="251" fitness="278.06957464218141">
      <Nodes>
        <Node type="bias" id="0" />
        <Node type="in" id="1" />
        <Node type="in" id="2" />
        <Node type="in" id="3" />
        <Node type="in" id="4" />
        <Node type="in" id="5" />
        <Node type="in" id="6" />
        <Node type="out" id="7" />
        <Node type="out" id="8" />
        <Node type="out" id="9" />
        <Node type="out" id="10" />
        <Node type="out" id="11" />
        <Node type="out" id="12" />
        <Node type="hid" id="278" />
        <Node type="hid" id="692" />
        <Node type="hid" id="1296" />
        <Node type="hid" id="1327" />
        <Node type="hid" id="1717" />
      </Nodes>
      <Connections>
        <Con id="13" src="0" tgt="7" wght="-4.60515405029642" />
        <Con id="14" src="0" tgt="8" wght="-0.33998966217041016" />
        <Con id="15" src="0" tgt="9" wght="2.1097199154573709" />
        <Con id="16" src="0" tgt="10" wght="4.4524366016048731" />
        <Con id="18" src="0" tgt="12" wght="-0.93583900947123766" />
        <Con id="19" src="1" tgt="7" wght="-4.9744117646664794" />
        <Con id="20" src="1" tgt="8" wght="-3.8572477229796207" />
        <Con id="21" src="1" tgt="9" wght="0.45278463486257603" />
        <Con id="22" src="1" tgt="10" wght="-3.6124001871964633" />
        <Con id="23" src="1" tgt="11" wght="-4.480911724344141" />
        <Con id="24" src="1" tgt="12" wght="5" />
        <Con id="25" src="2" tgt="7" wght="-4.9165183981700631" />
        <Con id="26" src="2" tgt="8" wght="5" />
        <Con id="27" src="2" tgt="9" wght="5" />
        <Con id="28" src="2" tgt="10" wght="3.8531735996729886" />
        <Con id="30" src="2" tgt="12" wght="3.2454698695596429" />
        <Con id="31" src="3" tgt="7" wght="-4.8205472039952664" />
        <Con id="32" src="3" tgt="8" wght="0.063611271088412857" />
        <Con id="33" src="3" tgt="9" wght="0.64982986638108475" />
        <Con id="34" src="3" tgt="10" wght="-1.3522882618891865" />
        <Con id="35" src="3" tgt="11" wght="-3.3775238176723281" />
        <Con id="36" src="3" tgt="12" wght="2.1463112172765166" />
        <Con id="37" src="4" tgt="7" wght="4.3242649050463289" />
        <Con id="38" src="4" tgt="8" wght="0.32312122344729088" />
        <Con id="39" src="4" tgt="9" wght="1.8173026929064671" />
        <Con id="40" src="4" tgt="10" wght="5" />
        <Con id="41" src="4" tgt="11" wght="-3.3331176391578436" />
        <Con id="42" src="4" tgt="12" wght="-4.5363697843299695" />
        <Con id="43" src="5" tgt="7" wght="5" />
        <Con id="44" src="5" tgt="8" wght="1.9622980724614951" />
        <Con id="45" src="5" tgt="9" wght="-1.1898250040378551" />
        <Con id="46" src="5" tgt="10" wght="-3.5575016448224357" />
        <Con id="47" src="5" tgt="11" wght="-0.31657831049507984" />
        <Con id="49" src="6" tgt="7" wght="4.0882774434989173" />
        <Con id="50" src="6" tgt="8" wght="0.31437248979501836" />
        <Con id="52" src="6" tgt="10" wght="-3.9082151612466429" />
        <Con id="53" src="6" tgt="11" wght="-3.1454299818850191" />
        <Con id="85" src="9" tgt="11" wght="-3.799990218856995" />
        <Con id="93" src="7" tgt="9" wght="-4.717640222686792" />
        <Con id="124" src="9" tgt="9" wght="-2.5056664534166111" />
        <Con id="279" src="6" tgt="278" wght="-5" />
        <Con id="280" src="278" tgt="9" wght="4.019487764813868" />
        <Con id="284" src="7" tgt="12" wght="-1.8565167416175785" />
        <Con id="408" src="12" tgt="278" wght="2.8825098844063848" />
        <Con id="470" src="278" tgt="10" wght="-3.7572883442044258" />
        <Con id="614" src="0" tgt="278" wght="-2.4972710909161244" />
        <Con id="667" src="11" tgt="278" wght="-4.7922551118493786" />
        <Con id="693" src="6" tgt="692" wght="-0.7840435682945549" />
        <Con id="694" src="692" tgt="12" wght="4.66474317734025" />
        <Con id="1297" src="0" tgt="1296" wght="4.2143662345162785" />
        <Con id="1298" src="1296" tgt="11" wght="5" />
        <Con id="1328" src="2" tgt="1327" wght="-3.1775500725686219" />
        <Con id="1329" src="1327" tgt="11" wght="4.99224747486422" />
        <Con id="1538" src="4" tgt="1327" wght="1.7602129078635964" />
        <Con id="1718" src="5" tgt="1717" wght="0.534648303873837" />
        <Con id="1719" src="1717" tgt="12" wght="4.6498728044443709" />
        <Con id="1826" src="8" tgt="692" wght="1.4857835369184613" />
        <Con id="2004" src="1717" tgt="1296" wght="-3.3357743686065078" />
      </Connections>
    </Network>
    <Network id="20371" birthGen="251" fitness="274.5906837463379">
      <Nodes>
        <Node type="bias" id="0" />
        <Node type="in" id="1" />
        <Node type="in" id="2" />
        <Node type="in" id="3" />
        <Node type="in" id="4" />
        <Node type="in" id="5" />
        <Node type="in" id="6" />
        <Node type="out" id="7" />
        <Node type="out" id="8" />
        <Node type="out" id="9" />
        <Node type="out" id="10" />
        <Node type="out" id="11" />
        <Node type="out" id="12" />
        <Node type="hid" id="278" />
        <Node type="hid" id="692" />
        <Node type="hid" id="1296" />
        <Node type="hid" id="1327" />
        <Node type="hid" id="1717" />
      </Nodes>
      <Connections>
        <Con id="13" src="0" tgt="7" wght="-4.60515405029642" />
        <Con id="14" src="0" tgt="8" wght="-0.3406153326607031" />
        <Con id="15" src="0" tgt="9" wght="2.1097199154573709" />
        <Con id="16" src="0" tgt="10" wght="4.4524366016048731" />
        <Con id="18" src="0" tgt="12" wght="-0.93583900947123766" />
        <Con id="19" src="1" tgt="7" wght="-4.9744117646664794" />
        <Con id="20" src="1" tgt="8" wght="-3.8572477229796207" />
        <Con id="21" src="1" tgt="9" wght="0.45278463486257603" />
        <Con id="22" src="1" tgt="10" wght="-3.6124001871964633" />
        <Con id="23" src="1" tgt="11" wght="-4.480911724344141" />
        <Con id="24" src="1" tgt="12" wght="5" />
        <Con id="25" src="2" tgt="7" wght="-4.9165183981700631" />
        <Con id="26" src="2" tgt="8" wght="5" />
        <Con id="27" src="2" tgt="9" wght="5" />
        <Con id="28" src="2" tgt="10" wght="3.8531735996729886" />
        <Con id="30" src="2" tgt="12" wght="3.2454698695596429" />
        <Con id="31" src="3" tgt="7" wght="-4.814565062799347" />
        <Con id="32" src="3" tgt="8" wght="0.063611271088412857" />
        <Con id="33" src="3" tgt="9" wght="0.64982986638108475" />
        <Con id="34" src="3" tgt="10" wght="-1.3522882618891865" />
        <Con id="35" src="3" tgt="11" wght="-3.3775238176723281" />
        <Con id="36" src="3" tgt="12" wght="2.1330409302236393" />
        <Con id="37" src="4" tgt="7" wght="4.3242649050463289" />
        <Con id="38" src="4" tgt="8" wght="0.32312122344729088" />
        <Con id="39" src="4" tgt="9" wght="1.8173026929064671" />
        <Con id="40" src="4" tgt="10" wght="5" />
        <Con id="41" src="4" tgt="11" wght="-3.3331176391578436" />
        <Con id="42" src="4" tgt="12" wght="-4.5363697843299695" />
        <Con id="43" src="5" tgt="7" wght="5" />
        <Con id="44" src="5" tgt="8" wght="1.9622980724614951" />
        <Con id="45" src="5" tgt="9" wght="-1.1898250040378551" />
        <Con id="46" src="5" tgt="10" wght="-3.5575016448224357" />
        <Con id="47" src="5" tgt="11" wght="-0.31657831049507984" />
        <Con id="49" src="6" tgt="7" wght="4.0882774434989173" />
        <Con id="50" src="6" tgt="8" wght="0.31437248979501836" />
        <Con id="52" src="6" tgt="10" wght="-3.945499392699038" />
        <Con id="53" src="6" tgt="11" wght="-3.1305122748930088" />
        <Con id="85" src="9" tgt="11" wght="-3.799990218856995" />
        <Con id="93" src="7" tgt="9" wght="-4.6865839690630322" />
        <Con id="124" src="9" tgt="9" wght="-2.5056664534166111" />
        <Con id="279" src="6" tgt="278" wght="-5" />
        <Con id="280" src="278" tgt="9" wght="4.019487764813868" />
        <Con id="284" src="7" tgt="12" wght="-1.8565167416175785" />
        <Con id="408" src="12" tgt="278" wght="2.8825098844063848" />
        <Con id="470" src="278" tgt="10" wght="-3.7572883442044258" />
        <Con id="614" src="0" tgt="278" wght="-2.5059784752555032" />
        <Con id="667" src="11" tgt="278" wght="-4.7922551118493786" />
        <Con id="693" src="6" tgt="692" wght="-0.7840435682945549" />
        <Con id="694" src="692" tgt="12" wght="4.66474317734025" />
        <Con id="1297" src="0" tgt="1296" wght="4.2143662345162785" />
        <Con id="1298" src="1296" tgt="11" wght="5" />
        <Con id="1328" src="2" tgt="1327" wght="-3.1775500725686219" />
        <Con id="1329" src="1327" tgt="11" wght="4.99224747486422" />
        <Con id="1538" src="4" tgt="1327" wght="1.7602129078635964" />
        <Con id="1718" src="5" tgt="1717" wght="0.534648303873837" />
        <Con id="1719" src="1717" tgt="12" wght="4.6498728044443709" />
        <Con id="1743" src="5" tgt="692" wght="-3.7357412790879607" />
        <Con id="1826" src="8" tgt="692" wght="1.4857835369184613" />
      </Connections>
    </Network>
    <Network id="20370" birthGen="251" fitness="273.81618824005125">
      <Nodes>
        <Node type="bias" id="0" />
        <Node type="in" id="1" />
        <Node type="in" id="2" />
        <Node type="in" id="3" />
        <Node type="in" id="4" />
        <Node type="in" id="5" />
        <Node type="in" id="6" />
        <Node type="out" id="7" />
        <Node type="out" id="8" />
        <Node type="out" id="9" />
        <Node type="out" id="10" />
        <Node type="out" id="11" />
        <Node type="out" id="12" />
        <Node type="hid" id="278" />
        <Node type="hid" id="692" />
        <Node type="hid" id="1296" />
        <Node type="hid" id="1327" />
        <Node type="hid" id="1717" />
      </Nodes>
      <Connections>
        <Con id="13" src="0" tgt="7" wght="-4.60515405029642" />
        <Con id="14" src="0" tgt="8" wght="-0.3406153326607031" />
        <Con id="15" src="0" tgt="9" wght="2.1097199154573709" />
        <Con id="16" src="0" tgt="10" wght="4.4524366016048731" />
        <Con id="18" src="0" tgt="12" wght="-0.93583900947123766" />
        <Con id="19" src="1" tgt="7" wght="-4.9744117646664794" />
        <Con id="20" src="1" tgt="8" wght="-3.8572477229796207" />
        <Con id="21" src="1" tgt="9" wght="0.45278463486257603" />
        <Con id="22" src="1" tgt="10" wght="-3.6124001871964633" />
        <Con id="23" src="1" tgt="11" wght="-4.480911724344141" />
        <Con id="24" src="1" tgt="12" wght="5" />
        <Con id="25" src="2" tgt="7" wght="-4.9165183981700631" />
        <Con id="26" src="2" tgt="8" wght="5" />
        <Con id="27" src="2" tgt="9" wght="5" />
        <Con id="28" src="2" tgt="10" wght="3.8531735996729886" />
        <Con id="30" src="2" tgt="12" wght="3.2454698695596429" />
        <Con id="31" src="3" tgt="7" wght="-4.814565062799347" />
        <Con id="32" src="3" tgt="8" wght="0.063611271088412857" />
        <Con id="33" src="3" tgt="9" wght="0.64982986638108475" />
        <Con id="34" src="3" tgt="10" wght="-1.3522882618891865" />
        <Con id="35" src="3" tgt="11" wght="-3.3775238176723281" />
        <Con id="36" src="3" tgt="12" wght="2.1330409302236393" />
        <Con id="37" src="4" tgt="7" wght="4.3242649050463289" />
        <Con id="38" src="4" tgt="8" wght="0.32312122344729088" />
        <Con id="39" src="4" tgt="9" wght="1.8173026929064671" />
        <Con id="40" src="4" tgt="10" wght="5" />
        <Con id="41" src="4" tgt="11" wght="-3.3331176391578436" />
        <Con id="42" src="4" tgt="12" wght="-4.5363697843299695" />
        <Con id="43" src="5" tgt="7" wght="5" />
        <Con id="44" src="5" tgt="8" wght="1.9622980724614951" />
        <Con id="45" src="5" tgt="9" wght="-1.1898250040378551" />
        <Con id="46" src="5" tgt="10" wght="-3.5575016448224357" />
        <Con id="47" src="5" tgt="11" wght="-0.31657831049507984" />
        <Con id="49" src="6" tgt="7" wght="4.0882774434989173" />
        <Con id="50" src="6" tgt="8" wght="0.31324758935155228" />
        <Con id="52" src="6" tgt="10" wght="-3.945499392699038" />
        <Con id="53" src="6" tgt="11" wght="-3.1305122748930088" />
        <Con id="85" src="9" tgt="11" wght="-3.799990218856995" />
        <Con id="93" src="7" tgt="9" wght="-4.6865839690630322" />
        <Con id="124" src="9" tgt="9" wght="-2.5056664534166111" />
        <Con id="279" src="6" tgt="278" wght="-5" />
        <Con id="280" src="278" tgt="9" wght="4.019487764813868" />
        <Con id="284" src="7" tgt="12" wght="-1.8565167416175785" />
        <Con id="408" src="12" tgt="278" wght="2.8825098844063848" />
        <Con id="470" src="278" tgt="10" wght="-3.7572883442044258" />
        <Con id="614" src="0" tgt="278" wght="-2.5059784752555032" />
        <Con id="667" src="11" tgt="278" wght="-4.7922551118493786" />
        <Con id="693" src="6" tgt="692" wght="-0.7840435682945549" />
        <Con id="694" src="692" tgt="12" wght="4.66474317734025" />
        <Con id="1297" src="0" tgt="1296" wght="4.2143662345162785" />
        <Con id="1298" src="1296" tgt="11" wght="4.9747830009724616" />
        <Con id="1328" src="2" tgt="1327" wght="-3.1775500725686219" />
        <Con id="1329" src="1327" tgt="11" wght="4.99224747486422" />
        <Con id="1538" src="4" tgt="1327" wght="1.7602129078635964" />
        <Con id="1718" src="5" tgt="1717" wght="0.534648303873837" />
        <Con id="1719" src="1717" tgt="12" wght="4.6498728044443709" />
        <Con id="1826" src="8" tgt="692" wght="1.4857835369184613" />
      </Connections>
    </Network>
    <Network id="20362" birthGen="251" fitness="312.11614837646482">
      <Nodes>
        <Node type="bias" id="0" />
        <Node type="in" id="1" />
        <Node type="in" id="2" />
        <Node type="in" id="3" />
        <Node type="in" id="4" />
        <Node type="in" id="5" />
        <Node type="in" id="6" />
        <Node type="out" id="7" />
        <Node type="out" id="8" />
        <Node type="out" id="9" />
        <Node type="out" id="10" />
        <Node type="out" id="11" />
        <Node type="out" id="12" />
        <Node type="hid" id="278" />
        <Node type="hid" id="692" />
        <Node type="hid" id="1296" />
        <Node type="hid" id="1327" />
        <Node type="hid" id="1717" />
        <Node type="hid" id="2006" />
      </Nodes>
      <Connections>
        <Con id="13" src="0" tgt="7" wght="-4.60515405029642" />
        <Con id="14" src="0" tgt="8" wght="-0.33998966217041016" />
        <Con id="15" src="0" tgt="9" wght="2.1097199154573709" />
        <Con id="16" src="0" tgt="10" wght="4.4524366016048731" />
        <Con id="18" src="0" tgt="12" wght="-0.93583900947123766" />
        <Con id="19" src="1" tgt="7" wght="-4.9744117646664794" />
        <Con id="20" src="1" tgt="8" wght="-3.8572477229796207" />
        <Con id="21" src="1" tgt="9" wght="0.45278463486257603" />
        <Con id="22" src="1" tgt="10" wght="-3.6124001871964633" />
        <Con id="23" src="1" tgt="11" wght="-4.4893080245892261" />
        <Con id="24" src="1" tgt="12" wght="5" />
        <Con id="25" src="2" tgt="7" wght="-4.9165183981700631" />
        <Con id="26" src="2" tgt="8" wght="5" />
        <Con id="27" src="2" tgt="9" wght="5" />
        <Con id="28" src="2" tgt="10" wght="3.8531735996729886" />
        <Con id="30" src="2" tgt="12" wght="3.2454698695596429" />
        <Con id="31" src="3" tgt="7" wght="-4.814565062799347" />
        <Con id="32" src="3" tgt="8" wght="0.063611271088412857" />
        <Con id="33" src="3" tgt="9" wght="0.64982986638108475" />
        <Con id="34" src="3" tgt="10" wght="-1.3522882618891865" />
        <Con id="35" src="3" tgt="11" wght="-3.3524102229175416" />
        <Con id="36" src="3" tgt="12" wght="2.1463112172765166" />
        <Con id="37" src="4" tgt="7" wght="4.3242649050463289" />
        <Con id="38" src="4" tgt="8" wght="0.32312122344729088" />
        <Con id="39" src="4" tgt="9" wght="1.8441170303859749" />
        <Con id="40" src="4" tgt="10" wght="5" />
        <Con id="41" src="4" tgt="11" wght="-3.3331176391578436" />
        <Con id="42" src="4" tgt="12" wght="-4.5363697843299695" />
        <Con id="43" src="5" tgt="7" wght="5" />
        <Con id="44" src="5" tgt="8" wght="1.9622980724614951" />
        <Con id="45" src="5" tgt="9" wght="-1.1898250040378551" />
        <Con id="46" src="5" tgt="10" wght="-3.5575016448224357" />
        <Con id="47" src="5" tgt="11" wght="-0.27872217957039974" />
        <Con id="49" src="6" tgt="7" wght="4.0882774434989173" />
        <Con id="50" src="6" tgt="8" wght="0.31437248979501836" />
        <Con id="52" src="6" tgt="10" wght="-3.945499392699038" />
        <Con id="53" src="6" tgt="11" wght="-3.1305122748930088" />
        <Con id="85" src="9" tgt="11" wght="-3.799990218856995" />
        <Con id="93" src="7" tgt="9" wght="-4.717640222686792" />
        <Con id="124" src="9" tgt="9" wght="-2.5056664534166111" />
        <Con id="279" src="6" tgt="278" wght="-5" />
        <Con id="280" src="278" tgt="9" wght="4.019487764813868" />
        <Con id="284" src="7" tgt="12" wght="-1.8565167416175785" />
        <Con id="408" src="12" tgt="278" wght="2.8825098844063848" />
        <Con id="470" src="278" tgt="10" wght="-3.7572883442044258" />
        <Con id="614" src="0" tgt="278" wght="-2.4972710909161244" />
        <Con id="667" src="11" tgt="278" wght="-4.7922551118493786" />
        <Con id="693" src="6" tgt="692" wght="-0.7840435682945549" />
        <Con id="1297" src="0" tgt="1296" wght="4.2143662345162785" />
        <Con id="1298" src="1296" tgt="11" wght="5" />
        <Con id="1328" src="2" tgt="1327" wght="-3.210452424766284" />
        <Con id="1329" src="1327" tgt="11" wght="4.99224747486422" />
        <Con id="1538" src="4" tgt="1327" wght="1.7602129078635964" />
        <Con id="1718" src="5" tgt="1717" wght="0.534648303873837" />
        <Con id="1719" src="1717" tgt="12" wght="4.6272070013220477" />
        <Con id="1826" src="8" tgt="692" wght="1.4857835369184613" />
        <Con id="2007" src="692" tgt="2006" wght="4.66474317734025" />
        <Con id="2008" src="2006" tgt="12" wght="5" />
      </Connections>
    </Network>
    <Network id="20363" birthGen="251" fitness="287.6692825317383">
      <Nodes>
        <Node type="bias" id="0" />
        <Node type="in" id="1" />
        <Node type="in" id="2" />
        <Node type="in" id="3" />
        <Node type="in" id="4" />
        <Node type="in" id="5" />
        <Node type="in" id="6" />
        <Node type="out" id="7" />
        <Node type="out" id="8" />
        <Node type="out" id="9" />
        <Node type="out" id="10" />
        <Node type="out" id="11" />
        <Node type="out" id="12" />
        <Node type="hid" id="278" />
        <Node type="hid" id="692" />
        <Node type="hid" id="1296" />
        <Node type="hid" id="1327" />
        <Node type="hid" id="1717" />
        <Node type="hid" id="2006" />
      </Nodes>
      <Connections>
        <Con id="13" src="0" tgt="7" wght="-4.60515405029642" />
        <Con id="14" src="0" tgt="8" wght="-0.33998966217041016" />
        <Con id="15" src="0" tgt="9" wght="2.1097199154573709" />
        <Con id="16" src="0" tgt="10" wght="4.4524366016048731" />
        <Con id="18" src="0" tgt="12" wght="-0.93583900947123766" />
        <Con id="19" src="1" tgt="7" wght="-4.9744117646664794" />
        <Con id="20" src="1" tgt="8" wght="-3.8572477229796207" />
        <Con id="21" src="1" tgt="9" wght="0.45278463486257603" />
        <Con id="22" src="1" tgt="10" wght="-3.6124001871964633" />
        <Con id="23" src="1" tgt="11" wght="-4.480911724344141" />
        <Con id="24" src="1" tgt="12" wght="5" />
        <Con id="25" src="2" tgt="7" wght="-4.9165183981700631" />
        <Con id="26" src="2" tgt="8" wght="5" />
        <Con id="27" src="2" tgt="9" wght="5" />
        <Con id="28" src="2" tgt="10" wght="3.8531735996729886" />
        <Con id="30" src="2" tgt="12" wght="3.2454698695596429" />
        <Con id="31" src="3" tgt="7" wght="-4.814565062799347" />
        <Con id="32" src="3" tgt="8" wght="0.063611271088412857" />
        <Con id="33" src="3" tgt="9" wght="0.64982986638108475" />
        <Con id="34" src="3" tgt="10" wght="-1.3522882618891865" />
        <Con id="35" src="3" tgt="11" wght="-3.3775238176723281" />
        <Con id="36" src="3" tgt="12" wght="2.1463112172765166" />
        <Con id="37" src="4" tgt="7" wght="4.3242649050463289" />
        <Con id="38" src="4" tgt="8" wght="0.32312122344729088" />
        <Con id="39" src="4" tgt="9" wght="1.8441170303859749" />
        <Con id="40" src="4" tgt="10" wght="5" />
        <Con id="41" src="4" tgt="11" wght="-3.3331176391578436" />
        <Con id="42" src="4" tgt="12" wght="-4.5363697843299695" />
        <Con id="43" src="5" tgt="7" wght="5" />
        <Con id="44" src="5" tgt="8" wght="2.1298397847633934" />
        <Con id="45" src="5" tgt="9" wght="-0.80744845567581669" />
        <Con id="46" src="5" tgt="10" wght="-3.5575016448224357" />
        <Con id="47" src="5" tgt="11" wght="-0.27872217957039974" />
        <Con id="49" src="6" tgt="7" wght="4.0882774434989173" />
        <Con id="50" src="6" tgt="8" wght="0.31437248979501836" />
        <Con id="52" src="6" tgt="10" wght="-3.945499392699038" />
        <Con id="53" src="6" tgt="11" wght="-3.1305122748930088" />
        <Con id="85" src="9" tgt="11" wght="-3.799990218856995" />
        <Con id="93" src="7" tgt="9" wght="-4.717640222686792" />
        <Con id="124" src="9" tgt="9" wght="-2.5056664534166111" />
        <Con id="279" src="6" tgt="278" wght="-5" />
        <Con id="280" src="278" tgt="9" wght="4.019487764813868" />
        <Con id="284" src="7" tgt="12" wght="-1.8565167416175785" />
        <Con id="408" src="12" tgt="278" wght="2.8825098844063848" />
        <Con id="470" src="278" tgt="10" wght="-3.7572883442044258" />
        <Con id="614" src="0" tgt="278" wght="-2.4972710909161244" />
        <Con id="667" src="11" tgt="278" wght="-4.7922551118493786" />
        <Con id="693" src="6" tgt="692" wght="-0.7840435682945549" />
        <Con id="1297" src="0" tgt="1296" wght="4.2143662345162785" />
        <Con id="1298" src="1296" tgt="11" wght="5" />
        <Con id="1328" src="2" tgt="1327" wght="-3.1775500725686219" />
        <Con id="1329" src="1327" tgt="11" wght="4.99224747486422" />
        <Con id="1538" src="4" tgt="1327" wght="1.7602129078635964" />
        <Con id="1718" src="5" tgt="1717" wght="0.534648303873837" />
        <Con id="1719" src="1717" tgt="12" wght="4.6272070013220477" />
        <Con id="1826" src="8" tgt="692" wght="1.4857835369184613" />
        <Con id="2007" src="692" tgt="2006" wght="4.66474317734025" />
        <Con id="2008" src="2006" tgt="12" wght="5" />
      </Connections>
    </Network>
    <Network id="20398" birthGen="251" fitness="242.94832000732421">
      <Nodes>
        <Node type="bias" id="0" />
        <Node type="in" id="1" />
        <Node type="in" id="2" />
        <Node type="in" id="3" />
        <Node type="in" id="4" />
        <Node type="in" id="5" />
        <Node type="in" id="6" />
        <Node type="out" id="7" />
        <Node type="out" id="8" />
        <Node type="out" id="9" />
        <Node type="out" id="10" />
        <Node type="out" id="11" />
        <Node type="out" id="12" />
        <Node type="hid" id="278" />
        <Node type="hid" id="692" />
        <Node type="hid" id="1296" />
        <Node type="hid" id="1327" />
        <Node type="hid" id="1717" />
      </Nodes>
      <Connections>
        <Con id="13" src="0" tgt="7" wght="-4.60515405029642" />
        <Con id="14" src="0" tgt="8" wght="-0.3406153326607031" />
        <Con id="15" src="0" tgt="9" wght="2.1097199154573709" />
        <Con id="16" src="0" tgt="10" wght="4.4524366016048731" />
        <Con id="18" src="0" tgt="12" wght="-0.93583900947123766" />
        <Con id="19" src="1" tgt="7" wght="-4.9744117646664794" />
        <Con id="20" src="1" tgt="8" wght="-3.8572477229796207" />
        <Con id="21" src="1" tgt="9" wght="0.45278463486257603" />
        <Con id="22" src="1" tgt="10" wght="-3.6124001871964633" />
        <Con id="23" src="1" tgt="11" wght="-4.480911724344141" />
        <Con id="24" src="1" tgt="12" wght="-4.4418567651882768" />
        <Con id="25" src="2" tgt="7" wght="-4.9165183981700631" />
        <Con id="26" src="2" tgt="8" wght="5" />
        <Con id="27" src="2" tgt="9" wght="5" />
        <Con id="28" src="2" tgt="10" wght="3.8531735996729886" />
        <Con id="30" src="2" tgt="12" wght="3.2454698695596429" />
        <Con id="31" src="3" tgt="7" wght="-4.1046029096469283" />
        <Con id="32" src="3" tgt="8" wght="0.063611271088412857" />
        <Con id="33" src="3" tgt="9" wght="0.64982986638108475" />
        <Con id="34" src="3" tgt="10" wght="-1.3522882618891865" />
        <Con id="35" src="3" tgt="11" wght="-3.3775238176723281" />
        <Con id="36" src="3" tgt="12" wght="2.1463112172765166" />
        <Con id="37" src="4" tgt="7" wght="4.3242649050463289" />
        <Con id="38" src="4" tgt="8" wght="-2.8146982286125422" />
        <Con id="39" src="4" tgt="9" wght="1.8173026929064671" />
        <Con id="40" src="4" tgt="10" wght="5" />
        <Con id="41" src="4" tgt="11" wght="-3.3331176391578436" />
        <Con id="42" src="4" tgt="12" wght="-0.3127988800406456" />
        <Con id="43" src="5" tgt="7" wght="5" />
        <Con id="44" src="5" tgt="8" wght="1.9622980724614951" />
        <Con id="45" src="5" tgt="9" wght="-1.1898250040378551" />
        <Con id="46" src="5" tgt="10" wght="-3.5575016448224357" />
        <Con id="47" src="5" tgt="11" wght="-0.31657831049507984" />
        <Con id="49" src="6" tgt="7" wght="4.0882774434989173" />
        <Con id="50" src="6" tgt="8" wght="0.31437248979501836" />
        <Con id="52" src="6" tgt="10" wght="-3.945499392699038" />
        <Con id="53" src="6" tgt="11" wght="-3.1305122748930088" />
        <Con id="85" src="9" tgt="11" wght="-3.799990218856995" />
        <Con id="93" src="7" tgt="9" wght="-4.717640222686792" />
        <Con id="124" src="9" tgt="9" wght="-2.5056664534166111" />
        <Con id="279" src="6" tgt="278" wght="-5" />
        <Con id="280" src="278" tgt="9" wght="4.019487764813868" />
        <Con id="284" src="7" tgt="12" wght="-1.8565167416175785" />
        <Con id="408" src="12" tgt="278" wght="2.8825098844063848" />
        <Con id="470" src="278" tgt="10" wght="-3.7572883442044258" />
        <Con id="614" src="0" tgt="278" wght="-2.4972710909161244" />
        <Con id="667" src="11" tgt="278" wght="0.64430306665599346" />
        <Con id="693" src="6" tgt="692" wght="-0.7840435682945549" />
        <Con id="694" src="692" tgt="12" wght="4.66474317734025" />
        <Con id="1297" src="0" tgt="1296" wght="4.2143662345162785" />
        <Con id="1298" src="1296" tgt="11" wght="5" />
        <Con id="1328" src="2" tgt="1327" wght="-3.1775500725686219" />
        <Con id="1329" src="1327" tgt="11" wght="4.99224747486422" />
        <Con id="1538" src="4" tgt="1327" wght="1.7602129078635964" />
        <Con id="1718" src="5" tgt="1717" wght="0.534648303873837" />
        <Con id="1719" src="1717" tgt="12" wght="4.6498728044443709" />
        <Con id="1826" src="8" tgt="692" wght="1.4857835369184613" />
      </Connections>
    </Network>
    <Network id="20414" birthGen="252" fitness="86.682451057434079">
      <Nodes>
        <Node type="bias" id="0" />
        <Node type="in" id="1" />
        <Node type="in" id="2" />
        <Node type="in" id="3" />
        <Node type="in" id="4" />
        <Node type="in" id="5" />
        <Node type="in" id="6" />
        <Node type="out" id="7" />
        <Node type="out" id="8" />
        <Node type="out" id="9" />
        <Node type="out" id="10" />
        <Node type="out" id="11" />
        <Node type="out" id="12" />
        <Node type="hid" id="413" />
        <Node type="hid" id="847" />
        <Node type="hid" id="1496" />
      </Nodes>
      <Connections>
        <Con id="13" src="0" tgt="7" wght="3.1816562887646138" />
        <Con id="14" src="0" tgt="8" wght="2.85120760308045" />
        <Con id="15" src="0" tgt="9" wght="1.9937909575861776" />
        <Con id="16" src="0" tgt="10" wght="-4.6636206269914542" />
        <Con id="17" src="0" tgt="11" wght="-0.21356431694057584" />
        <Con id="18" src="0" tgt="12" wght="-4.9387881673735" />
        <Con id="19" src="1" tgt="7" wght="2.4590862125792223" />
        <Con id="20" src="1" tgt="8" wght="-2.054391594959414" />
        <Con id="21" src="1" tgt="9" wght="-1.9653815696251407" />
        <Con id="22" src="1" tgt="10" wght="-0.63325135135010491" />
        <Con id="23" src="1" tgt="11" wght="4.4786886949039868" />
        <Con id="24" src="1" tgt="12" wght="-5" />
        <Con id="25" src="2" tgt="7" wght="-3.6124448041140882" />
        <Con id="26" src="2" tgt="8" wght="2.7346049999512396" />
        <Con id="27" src="2" tgt="9" wght="-0.066185532081973086" />
        <Con id="28" src="2" tgt="10" wght="4.689826276153326" />
        <Con id="29" src="2" tgt="11" wght="-4.0167760158132761" />
        <Con id="30" src="2" tgt="12" wght="5" />
        <Con id="31" src="3" tgt="7" wght="-1.8373882817104459" />
        <Con id="32" src="3" tgt="8" wght="-2.0394532480023959" />
        <Con id="33" src="3" tgt="9" wght="1.63639834002069" />
        <Con id="34" src="3" tgt="10" wght="-3.1575015198482848" />
        <Con id="35" src="3" tgt="11" wght="3.4597076949007457" />
        <Con id="36" src="3" tgt="12" wght="-1.0470194305032614" />
        <Con id="37" src="4" tgt="7" wght="-0.13131332796574172" />
        <Con id="38" src="4" tgt="8" wght="-2.1177697682806795" />
        <Con id="39" src="4" tgt="9" wght="-1.9280041233128653" />
        <Con id="41" src="4" tgt="11" wght="3.9758354986692117" />
        <Con id="42" src="4" tgt="12" wght="0.49270350290587256" />
        <Con id="43" src="5" tgt="7" wght="2.7806074706929493" />
        <Con id="44" src="5" tgt="8" wght="3.4028832478097892" />
        <Con id="45" src="5" tgt="9" wght="-1.3856177133293912" />
        <Con id="46" src="5" tgt="10" wght="-2.9974912454700013" />
        <Con id="47" src="5" tgt="11" wght="-2.1162257344225903" />
        <Con id="49" src="6" tgt="7" wght="-4.086740193888545" />
        <Con id="50" src="6" tgt="8" wght="0.37398296506548245" />
        <Con id="51" src="6" tgt="9" wght="-2.5694778611359661" />
        <Con id="52" src="6" tgt="10" wght="-2.8787547245455021" />
        <Con id="53" src="6" tgt="11" wght="4.8516178085975277" />
        <Con id="54" src="6" tgt="12" wght="-3.1309569335597884" />
        <Con id="95" src="9" tgt="12" wght="4.9338990585963334" />
        <Con id="101" src="11" tgt="8" wght="-2.3039588469858066" />
        <Con id="111" src="8" tgt="8" wght="0.82885713264724314" />
        <Con id="125" src="10" tgt="9" wght="-0.63793876181735576" />
        <Con id="143" src="7" tgt="8" wght="-0.23810413374897332" />
        <Con id="259" src="10" tgt="7" wght="-2.8846957207766679" />
        <Con id="415" src="413" tgt="12" wght="3.5561365057203642" />
        <Con id="503" src="413" tgt="11" wght="-3.849006561747967" />
        <Con id="521" src="413" tgt="8" wght="-3.75876954916184" />
        <Con id="529" src="12" tgt="413" wght="4.5214738929644227" />
        <Con id="848" src="2" tgt="847" wght="1.1344297245732826" />
        <Con id="849" src="847" tgt="413" wght="4.9954821034553172" />
        <Con id="1497" src="4" tgt="1496" wght="-1.3869141120773907" />
        <Con id="1498" src="1496" tgt="10" wght="5" />
      </Connections>
    </Network>
    <Network id="20415" birthGen="252" fitness="366.10059356689453">
      <Nodes>
        <Node type="bias" id="0" />
        <Node type="in" id="1" />
        <Node type="in" id="2" />
        <Node type="in" id="3" />
        <Node type="in" id="4" />
        <Node type="in" id="5" />
        <Node type="in" id="6" />
        <Node type="out" id="7" />
        <Node type="out" id="8" />
        <Node type="out" id="9" />
        <Node type="out" id="10" />
        <Node type="out" id="11" />
        <Node type="out" id="12" />
        <Node type="hid" id="278" />
        <Node type="hid" id="2016" />
      </Nodes>
      <Connections>
        <Con id="13" src="0" tgt="7" wght="-4.5884537165572326" />
        <Con id="14" src="0" tgt="8" wght="-0.35468214293154138" />
        <Con id="15" src="0" tgt="9" wght="1.3734814274989833" />
        <Con id="16" src="0" tgt="10" wght="5" />
        <Con id="17" src="0" tgt="11" wght="3.0749974544033343" />
        <Con id="18" src="0" tgt="12" wght="0.56185330734922811" />
        <Con id="19" src="1" tgt="7" wght="5" />
        <Con id="20" src="1" tgt="8" wght="-4.1700019165755338" />
        <Con id="21" src="1" tgt="9" wght="-2.4947099023598973" />
        <Con id="22" src="1" tgt="10" wght="-2.9105159777401486" />
        <Con id="23" src="1" tgt="11" wght="-3.883492959699911" />
        <Con id="24" src="1" tgt="12" wght="4.1776395913534285" />
        <Con id="25" src="2" tgt="7" wght="-3.2158266579636128" />
        <Con id="26" src="2" tgt="8" wght="3.2390879211045926" />
        <Con id="27" src="2" tgt="9" wght="-2.8688222863567843" />
        <Con id="28" src="2" tgt="10" wght="2.045148808504357" />
        <Con id="29" src="2" tgt="11" wght="-5" />
        <Con id="30" src="2" tgt="12" wght="5" />
        <Con id="31" src="3" tgt="7" wght="-5" />
        <Con id="32" src="3" tgt="8" wght="-2.8888228925561021" />
        <Con id="33" src="3" tgt="9" wght="4.9649836185448919" />
        <Con id="34" src="3" tgt="10" wght="-2.18210760559229" />
        <Con id="35" src="3" tgt="11" wght="0.47319102846962047" />
        <Con id="36" src="3" tgt="12" wght="-0.92420774987983223" />
        <Con id="37" src="4" tgt="7" wght="2.7886587549722406" />
        <Con id="38" src="4" tgt="8" wght="0.69971982092312068" />
        <Con id="39" src="4" tgt="9" wght="-1.7311477611239947" />
        <Con id="40" src="4" tgt="10" wght="5" />
        <Con id="41" src="4" tgt="11" wght="-1.4947046631392058" />
        <Con id="42" src="4" tgt="12" wght="-2.3464545139372892" />
        <Con id="43" src="5" tgt="7" wght="3.6394375888630748" />
        <Con id="44" src="5" tgt="8" wght="1.9580868968522664" />
        <Con id="45" src="5" tgt="9" wght="-0.73499056022478537" />
        <Con id="47" src="5" tgt="11" wght="0.71556559947700049" />
        <Con id="48" src="5" tgt="12" wght="3.6511293880590463" />
        <Con id="49" src="6" tgt="7" wght="3.46380083444164" />
        <Con id="50" src="6" tgt="8" wght="0.0090296649180103827" />
        <Con id="52" src="6" tgt="10" wght="-3.7987356992055661" />
        <Con id="53" src="6" tgt="11" wght="-0.89085071913156566" />
        <Con id="54" src="6" tgt="12" wght="0.27795612799468028" />
        <Con id="85" src="9" tgt="11" wght="-2.2196614168057089" />
        <Con id="93" src="7" tgt="9" wght="-4.5547174270964295" />
        <Con id="95" src="9" tgt="12" wght="-3.2283943938091397" />
        <Con id="158" src="10" tgt="11" wght="1.9671947021700915" />
        <Con id="166" src="9" tgt="10" wght="-2.4914594897664055" />
        <Con id="212" src="8" tgt="9" wght="1.2341992682233465" />
        <Con id="279" src="6" tgt="278" wght="-4.7169465970129423" />
        <Con id="280" src="278" tgt="9" wght="5" />
        <Con id="284" src="7" tgt="12" wght="-1.8611072156482906" />
        <Con id="408" src="12" tgt="278" wght="3.9592546347515105" />
        <Con id="447" src="10" tgt="278" wght="-2.4733502138406038" />
        <Con id="460" src="11" tgt="12" wght="0.0021078111603856087" />
        <Con id="470" src="278" tgt="10" wght="2.1127326485915967" />
        <Con id="493" src="2" tgt="278" wght="-4.907690747641027" />
        <Con id="540" src="1" tgt="278" wght="-4.1365783455867229" />
        <Con id="1173" src="4" tgt="278" wght="-3.0632552517146503" />
        <Con id="2017" src="5" tgt="2016" wght="-4.9742906900222605" />
        <Con id="2018" src="2016" tgt="10" wght="5" />
      </Connections>
    </Network>
    <Network id="20416" birthGen="252" fitness="325.900089263916">
      <Nodes>
        <Node type="bias" id="0" />
        <Node type="in" id="1" />
        <Node type="in" id="2" />
        <Node type="in" id="3" />
        <Node type="in" id="4" />
        <Node type="in" id="5" />
        <Node type="in" id="6" />
        <Node type="out" id="7" />
        <Node type="out" id="8" />
        <Node type="out" id="9" />
        <Node type="out" id="10" />
        <Node type="out" id="11" />
        <Node type="out" id="12" />
        <Node type="hid" id="278" />
        <Node type="hid" id="2016" />
      </Nodes>
      <Connections>
        <Con id="13" src="0" tgt="7" wght="-4.5884537165572326" />
        <Con id="14" src="0" tgt="8" wght="-0.35468214293154138" />
        <Con id="15" src="0" tgt="9" wght="1.3734814274989833" />
        <Con id="16" src="0" tgt="10" wght="5" />
        <Con id="17" src="0" tgt="11" wght="3.0749974544033343" />
        <Con id="18" src="0" tgt="12" wght="0.56185330734922811" />
        <Con id="19" src="1" tgt="7" wght="5" />
        <Con id="20" src="1" tgt="8" wght="-4.1700019165755338" />
        <Con id="21" src="1" tgt="9" wght="-2.4947099023598973" />
        <Con id="22" src="1" tgt="10" wght="-2.9105159777401486" />
        <Con id="23" src="1" tgt="11" wght="-3.883492959699911" />
        <Con id="24" src="1" tgt="12" wght="4.1776395913534285" />
        <Con id="25" src="2" tgt="7" wght="-3.2158266579636128" />
        <Con id="26" src="2" tgt="8" wght="3.2390879211045926" />
        <Con id="27" src="2" tgt="9" wght="-2.8688222863567843" />
        <Con id="28" src="2" tgt="10" wght="2.045148808504357" />
        <Con id="29" src="2" tgt="11" wght="-5" />
        <Con id="30" src="2" tgt="12" wght="5" />
        <Con id="31" src="3" tgt="7" wght="-5" />
        <Con id="32" src="3" tgt="8" wght="-2.8888228925561021" />
        <Con id="33" src="3" tgt="9" wght="4.9649836185448919" />
        <Con id="34" src="3" tgt="10" wght="-2.18210760559229" />
        <Con id="35" src="3" tgt="11" wght="0.47319102846962047" />
        <Con id="36" src="3" tgt="12" wght="-0.92420774987983223" />
        <Con id="37" src="4" tgt="7" wght="2.7886587549722406" />
        <Con id="38" src="4" tgt="8" wght="0.69971982092312068" />
        <Con id="39" src="4" tgt="9" wght="-1.7311477611239947" />
        <Con id="40" src="4" tgt="10" wght="5" />
        <Con id="41" src="4" tgt="11" wght="-1.4947046631392058" />
        <Con id="42" src="4" tgt="12" wght="-2.3464545139372892" />
        <Con id="43" src="5" tgt="7" wght="3.6394375888630748" />
        <Con id="44" src="5" tgt="8" wght="1.9580868968522664" />
        <Con id="45" src="5" tgt="9" wght="-0.73499056022478537" />
        <Con id="47" src="5" tgt="11" wght="0.71556559947700049" />
        <Con id="48" src="5" tgt="12" wght="3.6511293880590463" />
        <Con id="49" src="6" tgt="7" wght="3.46380083444164" />
        <Con id="50" src="6" tgt="8" wght="0.0090296649180103827" />
        <Con id="52" src="6" tgt="10" wght="-3.7987356992055661" />
        <Con id="53" src="6" tgt="11" wght="-0.89085071913156566" />
        <Con id="54" src="6" tgt="12" wght="0.27795612799468028" />
        <Con id="85" src="9" tgt="11" wght="-2.2196614168057089" />
        <Con id="93" src="7" tgt="9" wght="-4.5547174270964295" />
        <Con id="95" src="9" tgt="12" wght="-3.2283943938091397" />
        <Con id="158" src="10" tgt="11" wght="1.9671947021700915" />
        <Con id="166" src="9" tgt="10" wght="-2.4914594897664055" />
        <Con id="212" src="8" tgt="9" wght="1.2341992682233465" />
        <Con id="279" src="6" tgt="278" wght="-4.7169465970129423" />
        <Con id="280" src="278" tgt="9" wght="5" />
        <Con id="284" src="7" tgt="12" wght="-1.8611072156482906" />
        <Con id="408" src="12" tgt="278" wght="3.9574110083124734" />
        <Con id="447" src="10" tgt="278" wght="-2.4733502138406038" />
        <Con id="460" src="11" tgt="12" wght="0.017669881078902896" />
        <Con id="470" src="278" tgt="10" wght="2.1127326485915967" />
        <Con id="493" src="2" tgt="278" wght="-4.907690747641027" />
        <Con id="540" src="1" tgt="278" wght="-4.1463965897962138" />
        <Con id="1173" src="4" tgt="278" wght="-3.0632552517146503" />
        <Con id="2017" src="5" tgt="2016" wght="-4.9742906900222605" />
        <Con id="2018" src="2016" tgt="10" wght="5" />
      </Connections>
    </Network>
    <Network id="20417" birthGen="252" fitness="272.15777511596679">
      <Nodes>
        <Node type="bias" id="0" />
        <Node type="in" id="1" />
        <Node type="in" id="2" />
        <Node type="in" id="3" />
        <Node type="in" id="4" />
        <Node type="in" id="5" />
        <Node type="in" id="6" />
        <Node type="out" id="7" />
        <Node type="out" id="8" />
        <Node type="out" id="9" />
        <Node type="out" id="10" />
        <Node type="out" id="11" />
        <Node type="out" id="12" />
        <Node type="hid" id="278" />
        <Node type="hid" id="2016" />
      </Nodes>
      <Connections>
        <Con id="13" src="0" tgt="7" wght="-3.8049008222945506" />
        <Con id="14" src="0" tgt="8" wght="-0.35468214293154138" />
        <Con id="15" src="0" tgt="9" wght="1.3734814274989833" />
        <Con id="16" src="0" tgt="10" wght="5" />
        <Con id="17" src="0" tgt="11" wght="3.0749974544033343" />
        <Con id="18" src="0" tgt="12" wght="0.56185330734922811" />
        <Con id="19" src="1" tgt="7" wght="5" />
        <Con id="20" src="1" tgt="8" wght="-4.1700019165755338" />
        <Con id="21" src="1" tgt="9" wght="-2.4947099023598973" />
        <Con id="22" src="1" tgt="10" wght="-2.9105159777401486" />
        <Con id="23" src="1" tgt="11" wght="-3.883492959699911" />
        <Con id="24" src="1" tgt="12" wght="4.1776395913534285" />
        <Con id="25" src="2" tgt="7" wght="-3.2158266579636128" />
        <Con id="26" src="2" tgt="8" wght="3.2390879211045926" />
        <Con id="27" src="2" tgt="9" wght="-2.8688222863567843" />
        <Con id="28" src="2" tgt="10" wght="2.045148808504357" />
        <Con id="29" src="2" tgt="11" wght="-5" />
        <Con id="30" src="2" tgt="12" wght="5" />
        <Con id="31" src="3" tgt="7" wght="-5" />
        <Con id="32" src="3" tgt="8" wght="-2.8888228925561021" />
        <Con id="33" src="3" tgt="9" wght="4.9649836185448919" />
        <Con id="34" src="3" tgt="10" wght="-2.18210760559229" />
        <Con id="35" src="3" tgt="11" wght="0.47319102846962047" />
        <Con id="36" src="3" tgt="12" wght="-0.92420774987983223" />
        <Con id="37" src="4" tgt="7" wght="2.7886587549722406" />
        <Con id="38" src="4" tgt="8" wght="0.69971982092312068" />
        <Con id="39" src="4" tgt="9" wght="-1.7311477611239947" />
        <Con id="40" src="4" tgt="10" wght="5" />
        <Con id="41" src="4" tgt="11" wght="-1.4947046631392058" />
        <Con id="42" src="4" tgt="12" wght="-2.3464545139372892" />
        <Con id="43" src="5" tgt="7" wght="3.6394375888630748" />
        <Con id="44" src="5" tgt="8" wght="1.9580868968522664" />
        <Con id="45" src="5" tgt="9" wght="-0.73499056022478537" />
        <Con id="47" src="5" tgt="11" wght="0.71556559947700049" />
        <Con id="48" src="5" tgt="12" wght="3.6511293880590463" />
        <Con id="49" src="6" tgt="7" wght="3.46380083444164" />
        <Con id="50" src="6" tgt="8" wght="0.0090296649180103827" />
        <Con id="52" src="6" tgt="10" wght="-3.7987356992055661" />
        <Con id="53" src="6" tgt="11" wght="-0.89085071913156566" />
        <Con id="54" src="6" tgt="12" wght="0.27795612799468028" />
        <Con id="85" src="9" tgt="11" wght="-2.2196614168057089" />
        <Con id="93" src="7" tgt="9" wght="-4.5547174270964295" />
        <Con id="95" src="9" tgt="12" wght="-3.2283943938091397" />
        <Con id="158" src="10" tgt="11" wght="1.9671947021700915" />
        <Con id="166" src="9" tgt="10" wght="-2.4914594897664055" />
        <Con id="212" src="8" tgt="9" wght="1.2341992682233465" />
        <Con id="279" src="6" tgt="278" wght="-4.7169465970129423" />
        <Con id="280" src="278" tgt="9" wght="5" />
        <Con id="284" src="7" tgt="12" wght="-1.8611072156482906" />
        <Con id="408" src="12" tgt="278" wght="3.9592546347515105" />
        <Con id="447" src="10" tgt="278" wght="-2.4733502138406038" />
        <Con id="460" src="11" tgt="12" wght="0.0021078111603856087" />
        <Con id="470" src="278" tgt="10" wght="2.1127326485915967" />
        <Con id="493" src="2" tgt="278" wght="-4.907690747641027" />
        <Con id="540" src="1" tgt="278" wght="-4.1463965897962138" />
        <Con id="1173" src="4" tgt="278" wght="-3.0632552517146503" />
        <Con id="2017" src="5" tgt="2016" wght="-4.9742906900222605" />
        <Con id="2018" src="2016" tgt="10" wght="5" />
      </Connections>
    </Network>
    <Network id="20418" birthGen="252" fitness="267.82696762084959">
      <Nodes>
        <Node type="bias" id="0" />
        <Node type="in" id="1" />
        <Node type="in" id="2" />
        <Node type="in" id="3" />
        <Node type="in" id="4" />
        <Node type="in" id="5" />
        <Node type="in" id="6" />
        <Node type="out" id="7" />
        <Node type="out" id="8" />
        <Node type="out" id="9" />
        <Node type="out" id="10" />
        <Node type="out" id="11" />
        <Node type="out" id="12" />
        <Node type="hid" id="278" />
        <Node type="hid" id="2016" />
      </Nodes>
      <Connections>
        <Con id="13" src="0" tgt="7" wght="-4.5884537165572326" />
        <Con id="14" src="0" tgt="8" wght="-0.35468214293154138" />
        <Con id="15" src="0" tgt="9" wght="1.3734814274989833" />
        <Con id="16" src="0" tgt="10" wght="5" />
        <Con id="17" src="0" tgt="11" wght="3.0749974544033343" />
        <Con id="18" src="0" tgt="12" wght="0.56185330734922811" />
        <Con id="19" src="1" tgt="7" wght="5" />
        <Con id="20" src="1" tgt="8" wght="-4.1700019165755338" />
        <Con id="21" src="1" tgt="9" wght="-2.4947099023598973" />
        <Con id="22" src="1" tgt="10" wght="-2.9105159777401486" />
        <Con id="23" src="1" tgt="11" wght="-3.883492959699911" />
        <Con id="24" src="1" tgt="12" wght="4.1776395913534285" />
        <Con id="25" src="2" tgt="7" wght="-3.2158266579636128" />
        <Con id="26" src="2" tgt="8" wght="3.2390879211045926" />
        <Con id="27" src="2" tgt="9" wght="-2.8688222863567843" />
        <Con id="28" src="2" tgt="10" wght="2.045148808504357" />
        <Con id="29" src="2" tgt="11" wght="-5" />
        <Con id="30" src="2" tgt="12" wght="5" />
        <Con id="31" src="3" tgt="7" wght="-5" />
        <Con id="32" src="3" tgt="8" wght="-2.8888228925561021" />
        <Con id="33" src="3" tgt="9" wght="4.9649836185448919" />
        <Con id="34" src="3" tgt="10" wght="-2.18210760559229" />
        <Con id="35" src="3" tgt="11" wght="0.47319102846962047" />
        <Con id="36" src="3" tgt="12" wght="-0.92420774987983223" />
        <Con id="37" src="4" tgt="7" wght="2.7886587549722406" />
        <Con id="38" src="4" tgt="8" wght="0.69971982092312068" />
        <Con id="39" src="4" tgt="9" wght="-1.7311477611239947" />
        <Con id="40" src="4" tgt="10" wght="5" />
        <Con id="41" src="4" tgt="11" wght="-1.4947046631392058" />
        <Con id="42" src="4" tgt="12" wght="-2.3464545139372892" />
        <Con id="43" src="5" tgt="7" wght="3.6394375888630748" />
        <Con id="44" src="5" tgt="8" wght="1.9580868968522664" />
        <Con id="45" src="5" tgt="9" wght="-0.73499056022478537" />
        <Con id="47" src="5" tgt="11" wght="0.71556559947700049" />
        <Con id="48" src="5" tgt="12" wght="3.6511293880590463" />
        <Con id="49" src="6" tgt="7" wght="3.46380083444164" />
        <Con id="50" src="6" tgt="8" wght="0.0090296649180103827" />
        <Con id="52" src="6" tgt="10" wght="-3.7987356992055661" />
        <Con id="53" src="6" tgt="11" wght="-0.89085071913156566" />
        <Con id="54" src="6" tgt="12" wght="0.27795612799468028" />
        <Con id="85" src="9" tgt="11" wght="-2.2196614168057089" />
        <Con id="93" src="7" tgt="9" wght="-4.5547174270964295" />
        <Con id="95" src="9" tgt="12" wght="-3.2283943938091397" />
        <Con id="158" src="10" tgt="11" wght="1.9671947021700915" />
        <Con id="166" src="9" tgt="10" wght="-2.4914594897664055" />
        <Con id="212" src="8" tgt="9" wght="1.2341992682233465" />
        <Con id="279" src="6" tgt="278" wght="-4.7169465970129423" />
        <Con id="280" src="278" tgt="9" wght="5" />
        <Con id="284" src="7" tgt="12" wght="-1.8611072156482906" />
        <Con id="408" src="12" tgt="278" wght="3.9592546347515105" />
        <Con id="447" src="10" tgt="278" wght="-2.4733502138406038" />
        <Con id="460" src="11" tgt="12" wght="0.0021078111603856087" />
        <Con id="470" src="278" tgt="10" wght="2.1076066166251177" />
        <Con id="493" src="2" tgt="278" wght="-4.907690747641027" />
        <Con id="540" src="1" tgt="278" wght="-4.1463965897962138" />
        <Con id="1173" src="4" tgt="278" wght="-3.0632552517146503" />
        <Con id="2017" src="5" tgt="2016" wght="-4.9742906900222605" />
        <Con id="2018" src="2016" tgt="10" wght="5" />
      </Connections>
    </Network>
    <Network id="20419" birthGen="252" fitness="376.2006896972656">
      <Nodes>
        <Node type="bias" id="0" />
        <Node type="in" id="1" />
        <Node type="in" id="2" />
        <Node type="in" id="3" />
        <Node type="in" id="4" />
        <Node type="in" id="5" />
        <Node type="in" id="6" />
        <Node type="out" id="7" />
        <Node type="out" id="8" />
        <Node type="out" id="9" />
        <Node type="out" id="10" />
        <Node type="out" id="11" />
        <Node type="out" id="12" />
        <Node type="hid" id="278" />
        <Node type="hid" id="2016" />
      </Nodes>
      <Connections>
        <Con id="13" src="0" tgt="7" wght="-4.5884537165572326" />
        <Con id="14" src="0" tgt="8" wght="-0.35468214293154138" />
        <Con id="15" src="0" tgt="9" wght="1.3734814274989833" />
        <Con id="16" src="0" tgt="10" wght="5" />
        <Con id="17" src="0" tgt="11" wght="3.0749974544033343" />
        <Con id="18" src="0" tgt="12" wght="0.56185330734922811" />
        <Con id="19" src="1" tgt="7" wght="5" />
        <Con id="20" src="1" tgt="8" wght="-4.1700019165755338" />
        <Con id="21" src="1" tgt="9" wght="-2.4947099023598973" />
        <Con id="22" src="1" tgt="10" wght="-2.9105159777401486" />
        <Con id="23" src="1" tgt="11" wght="-3.883492959699911" />
        <Con id="24" src="1" tgt="12" wght="4.1776395913534285" />
        <Con id="25" src="2" tgt="7" wght="-3.2158266579636128" />
        <Con id="26" src="2" tgt="8" wght="3.2390879211045926" />
        <Con id="27" src="2" tgt="9" wght="-2.8688222863567843" />
        <Con id="28" src="2" tgt="10" wght="2.045148808504357" />
        <Con id="29" src="2" tgt="11" wght="-5" />
        <Con id="30" src="2" tgt="12" wght="5" />
        <Con id="31" src="3" tgt="7" wght="-5" />
        <Con id="32" src="3" tgt="8" wght="-2.8888228925561021" />
        <Con id="33" src="3" tgt="9" wght="4.9649836185448919" />
        <Con id="34" src="3" tgt="10" wght="-2.18210760559229" />
        <Con id="35" src="3" tgt="11" wght="0.47319102846962047" />
        <Con id="36" src="3" tgt="12" wght="-0.92420774987983223" />
        <Con id="37" src="4" tgt="7" wght="2.7886587549722406" />
        <Con id="38" src="4" tgt="8" wght="0.69971982092312068" />
        <Con id="39" src="4" tgt="9" wght="-1.7311477611239947" />
        <Con id="40" src="4" tgt="10" wght="5" />
        <Con id="41" src="4" tgt="11" wght="-1.4947046631392058" />
        <Con id="42" src="4" tgt="12" wght="-2.3464545139372892" />
        <Con id="43" src="5" tgt="7" wght="3.6394375888630748" />
        <Con id="44" src="5" tgt="8" wght="1.9580868968522664" />
        <Con id="45" src="5" tgt="9" wght="-0.73499056022478537" />
        <Con id="47" src="5" tgt="11" wght="0.71556559947700049" />
        <Con id="48" src="5" tgt="12" wght="3.6511293880590463" />
        <Con id="49" src="6" tgt="7" wght="3.46380083444164" />
        <Con id="50" src="6" tgt="8" wght="0.0090296649180103827" />
        <Con id="52" src="6" tgt="10" wght="-3.7987356992055661" />
        <Con id="53" src="6" tgt="11" wght="-0.89085071913156566" />
        <Con id="54" src="6" tgt="12" wght="0.27795612799468028" />
        <Con id="85" src="9" tgt="11" wght="-2.2196614168057089" />
        <Con id="93" src="7" tgt="9" wght="-4.5547174270964295" />
        <Con id="95" src="9" tgt="12" wght="-3.2283943938091397" />
        <Con id="158" src="10" tgt="11" wght="1.9671947021700915" />
        <Con id="166" src="9" tgt="10" wght="-2.4914594897664055" />
        <Con id="212" src="8" tgt="9" wght="1.2341992682233465" />
        <Con id="279" src="6" tgt="278" wght="-4.7169465970129423" />
        <Con id="280" src="278" tgt="9" wght="5" />
        <Con id="284" src="7" tgt="12" wght="-1.8611072156482906" />
        <Con id="408" src="12" tgt="278" wght="3.9592546347515105" />
        <Con id="447" src="10" tgt="278" wght="-2.4733502138406038" />
        <Con id="460" src="11" tgt="12" wght="0.0021078111603856087" />
        <Con id="470" src="278" tgt="10" wght="2.1127326485915967" />
        <Con id="493" src="2" tgt="278" wght="-4.907690747641027" />
        <Con id="540" src="1" tgt="278" wght="-4.1463965897962138" />
        <Con id="1173" src="4" tgt="278" wght="-3.0632552517146503" />
        <Con id="2017" src="5" tgt="2016" wght="-4.9742906900222605" />
        <Con id="2018" src="2016" tgt="10" wght="5" />
      </Connections>
    </Network>
    <Network id="20420" birthGen="252" fitness="336.7304748535156">
      <Nodes>
        <Node type="bias" id="0" />
        <Node type="in" id="1" />
        <Node type="in" id="2" />
        <Node type="in" id="3" />
        <Node type="in" id="4" />
        <Node type="in" id="5" />
        <Node type="in" id="6" />
        <Node type="out" id="7" />
        <Node type="out" id="8" />
        <Node type="out" id="9" />
        <Node type="out" id="10" />
        <Node type="out" id="11" />
        <Node type="out" id="12" />
        <Node type="hid" id="278" />
        <Node type="hid" id="2016" />
      </Nodes>
      <Connections>
        <Con id="13" src="0" tgt="7" wght="-4.5495952834091939" />
        <Con id="14" src="0" tgt="8" wght="-0.35468214293154138" />
        <Con id="15" src="0" tgt="9" wght="1.3734814274989833" />
        <Con id="16" src="0" tgt="10" wght="5" />
        <Con id="17" src="0" tgt="11" wght="3.0749974544033343" />
        <Con id="18" src="0" tgt="12" wght="0.56185330734922811" />
        <Con id="19" src="1" tgt="7" wght="5" />
        <Con id="20" src="1" tgt="8" wght="-4.1700019165755338" />
        <Con id="21" src="1" tgt="9" wght="-2.4947099023598973" />
        <Con id="22" src="1" tgt="10" wght="-2.9105159777401486" />
        <Con id="23" src="1" tgt="11" wght="-3.883492959699911" />
        <Con id="24" src="1" tgt="12" wght="4.1776395913534285" />
        <Con id="25" src="2" tgt="7" wght="-3.2158266579636128" />
        <Con id="26" src="2" tgt="8" wght="3.2390879211045926" />
        <Con id="27" src="2" tgt="9" wght="-2.8688222863567843" />
        <Con id="28" src="2" tgt="10" wght="2.045148808504357" />
        <Con id="29" src="2" tgt="11" wght="-5" />
        <Con id="30" src="2" tgt="12" wght="4.9782324513693927" />
        <Con id="31" src="3" tgt="7" wght="-5" />
        <Con id="32" src="3" tgt="8" wght="-2.8456310078957729" />
        <Con id="33" src="3" tgt="9" wght="4.9649836185448919" />
        <Con id="34" src="3" tgt="10" wght="-2.18210760559229" />
        <Con id="35" src="3" tgt="11" wght="0.47319102846962047" />
        <Con id="36" src="3" tgt="12" wght="-0.92420774987983223" />
        <Con id="37" src="4" tgt="7" wght="2.7886587549722406" />
        <Con id="38" src="4" tgt="8" wght="0.69971982092312068" />
        <Con id="39" src="4" tgt="9" wght="-1.7311477611239947" />
        <Con id="40" src="4" tgt="10" wght="5" />
        <Con id="41" src="4" tgt="11" wght="-1.4947046631392058" />
        <Con id="42" src="4" tgt="12" wght="-2.3464545139372892" />
        <Con id="43" src="5" tgt="7" wght="3.6394375888630748" />
        <Con id="44" src="5" tgt="8" wght="1.9580868968522664" />
        <Con id="45" src="5" tgt="9" wght="-0.73499056022478537" />
        <Con id="47" src="5" tgt="11" wght="0.71556559947700049" />
        <Con id="48" src="5" tgt="12" wght="3.6511293880590463" />
        <Con id="49" src="6" tgt="7" wght="3.46380083444164" />
        <Con id="50" src="6" tgt="8" wght="0.0090296649180103827" />
        <Con id="52" src="6" tgt="10" wght="-3.7987356992055661" />
        <Con id="53" src="6" tgt="11" wght="-0.89085071913156566" />
        <Con id="54" src="6" tgt="12" wght="0.27795612799468028" />
        <Con id="85" src="9" tgt="11" wght="-2.2196614168057089" />
        <Con id="93" src="7" tgt="9" wght="-4.5547174270964295" />
        <Con id="95" src="9" tgt="12" wght="-3.2283943938091397" />
        <Con id="158" src="10" tgt="11" wght="1.9671947021700915" />
        <Con id="166" src="9" tgt="10" wght="-2.4914594897664055" />
        <Con id="212" src="8" tgt="9" wght="1.2341992682233465" />
        <Con id="279" src="6" tgt="278" wght="-4.7169465970129423" />
        <Con id="280" src="278" tgt="9" wght="5" />
        <Con id="284" src="7" tgt="12" wght="-1.8611072156482906" />
        <Con id="408" src="12" tgt="278" wght="3.9592546347515105" />
        <Con id="447" src="10" tgt="278" wght="-2.4733502138406038" />
        <Con id="460" src="11" tgt="12" wght="0.0021078111603856087" />
        <Con id="470" src="278" tgt="10" wght="2.1127326485915967" />
        <Con id="493" src="2" tgt="278" wght="-4.907690747641027" />
        <Con id="540" src="1" tgt="278" wght="-4.1463965897962138" />
        <Con id="1173" src="4" tgt="278" wght="-3.0632552517146503" />
        <Con id="2017" src="5" tgt="2016" wght="-4.9742906900222605" />
        <Con id="2018" src="2016" tgt="10" wght="5" />
      </Connections>
    </Network>
    <Network id="20421" birthGen="252" fitness="351.21145782470705">
      <Nodes>
        <Node type="bias" id="0" />
        <Node type="in" id="1" />
        <Node type="in" id="2" />
        <Node type="in" id="3" />
        <Node type="in" id="4" />
        <Node type="in" id="5" />
        <Node type="in" id="6" />
        <Node type="out" id="7" />
        <Node type="out" id="8" />
        <Node type="out" id="9" />
        <Node type="out" id="10" />
        <Node type="out" id="11" />
        <Node type="out" id="12" />
        <Node type="hid" id="278" />
        <Node type="hid" id="2016" />
      </Nodes>
      <Connections>
        <Con id="13" src="0" tgt="7" wght="-4.5884537165572326" />
        <Con id="14" src="0" tgt="8" wght="-0.35468214293154138" />
        <Con id="15" src="0" tgt="9" wght="1.3734814274989833" />
        <Con id="16" src="0" tgt="10" wght="5" />
        <Con id="17" src="0" tgt="11" wght="3.0749974544033343" />
        <Con id="18" src="0" tgt="12" wght="0.56185330734922811" />
        <Con id="19" src="1" tgt="7" wght="5" />
        <Con id="20" src="1" tgt="8" wght="-4.1700019165755338" />
        <Con id="21" src="1" tgt="9" wght="-2.4947099023598973" />
        <Con id="22" src="1" tgt="10" wght="-2.9105159777401486" />
        <Con id="23" src="1" tgt="11" wght="-3.883492959699911" />
        <Con id="24" src="1" tgt="12" wght="4.1776395913534285" />
        <Con id="25" src="2" tgt="7" wght="-3.2158266579636128" />
        <Con id="26" src="2" tgt="8" wght="3.2390879211045926" />
        <Con id="27" src="2" tgt="9" wght="-2.8688222863567843" />
        <Con id="28" src="2" tgt="10" wght="2.045148808504357" />
        <Con id="29" src="2" tgt="11" wght="-5" />
        <Con id="30" src="2" tgt="12" wght="5" />
        <Con id="31" src="3" tgt="7" wght="-5" />
        <Con id="32" src="3" tgt="8" wght="-2.8888228925561021" />
        <Con id="33" src="3" tgt="9" wght="4.9649836185448919" />
        <Con id="34" src="3" tgt="10" wght="-2.18210760559229" />
        <Con id="35" src="3" tgt="11" wght="0.47319102846962047" />
        <Con id="36" src="3" tgt="12" wght="-0.92420774987983223" />
        <Con id="37" src="4" tgt="7" wght="2.7886587549722406" />
        <Con id="38" src="4" tgt="8" wght="0.69971982092312068" />
        <Con id="39" src="4" tgt="9" wght="-1.7311477611239947" />
        <Con id="40" src="4" tgt="10" wght="5" />
        <Con id="41" src="4" tgt="11" wght="-1.4947046631392058" />
        <Con id="42" src="4" tgt="12" wght="-2.3464545139372892" />
        <Con id="43" src="5" tgt="7" wght="3.6394375888630748" />
        <Con id="44" src="5" tgt="8" wght="1.9580868968522664" />
        <Con id="45" src="5" tgt="9" wght="-0.73499056022478537" />
        <Con id="47" src="5" tgt="11" wght="0.71556559947700049" />
        <Con id="48" src="5" tgt="12" wght="3.6511293880590463" />
        <Con id="49" src="6" tgt="7" wght="3.46380083444164" />
        <Con id="50" src="6" tgt="8" wght="0.0090296649180103827" />
        <Con id="52" src="6" tgt="10" wght="-3.7987356992055661" />
        <Con id="53" src="6" tgt="11" wght="-0.89085071913156566" />
        <Con id="54" src="6" tgt="12" wght="0.27795612799468028" />
        <Con id="85" src="9" tgt="11" wght="-2.2196614168057089" />
        <Con id="93" src="7" tgt="9" wght="-4.5547174270964295" />
        <Con id="95" src="9" tgt="12" wght="-3.2283943938091397" />
        <Con id="158" src="10" tgt="11" wght="1.9671947021700915" />
        <Con id="166" src="9" tgt="10" wght="-2.4914594897664055" />
        <Con id="212" src="8" tgt="9" wght="1.2341992682233465" />
        <Con id="279" src="6" tgt="278" wght="-4.7169465970129423" />
        <Con id="280" src="278" tgt="9" wght="5" />
        <Con id="284" src="7" tgt="12" wght="-1.8611072156482906" />
        <Con id="408" src="12" tgt="278" wght="3.9592546347515105" />
        <Con id="447" src="10" tgt="278" wght="-2.4733502138406038" />
        <Con id="460" src="11" tgt="12" wght="0.0021078111603856087" />
        <Con id="470" src="278" tgt="10" wght="2.1127326485915967" />
        <Con id="493" src="2" tgt="278" wght="-4.907690747641027" />
        <Con id="540" src="1" tgt="278" wght="-4.1463965897962138" />
        <Con id="828" src="5" tgt="278" wght="1.5177343972027302" />
        <Con id="1173" src="4" tgt="278" wght="-3.0632552517146503" />
        <Con id="2017" src="5" tgt="2016" wght="-4.9742906900222605" />
        <Con id="2018" src="2016" tgt="10" wght="5" />
      </Connections>
    </Network>
    <Network id="20422" birthGen="252" fitness="384.98018569946288">
      <Nodes>
        <Node type="bias" id="0" />
        <Node type="in" id="1" />
        <Node type="in" id="2" />
        <Node type="in" id="3" />
        <Node type="in" id="4" />
        <Node type="in" id="5" />
        <Node type="in" id="6" />
        <Node type="out" id="7" />
        <Node type="out" id="8" />
        <Node type="out" id="9" />
        <Node type="out" id="10" />
        <Node type="out" id="11" />
        <Node type="out" id="12" />
        <Node type="hid" id="278" />
        <Node type="hid" id="2016" />
      </Nodes>
      <Connections>
        <Con id="13" src="0" tgt="7" wght="-4.5884537165572326" />
        <Con id="14" src="0" tgt="8" wght="-0.35468214293154138" />
        <Con id="15" src="0" tgt="9" wght="1.3734814274989833" />
        <Con id="16" src="0" tgt="10" wght="5" />
        <Con id="17" src="0" tgt="11" wght="3.0749974544033343" />
        <Con id="18" src="0" tgt="12" wght="0.56185330734922811" />
        <Con id="19" src="1" tgt="7" wght="5" />
        <Con id="20" src="1" tgt="8" wght="-4.1700019165755338" />
        <Con id="21" src="1" tgt="9" wght="-2.4947099023598973" />
        <Con id="22" src="1" tgt="10" wght="-2.9105159777401486" />
        <Con id="23" src="1" tgt="11" wght="-3.883492959699911" />
        <Con id="24" src="1" tgt="12" wght="4.1776395913534285" />
        <Con id="25" src="2" tgt="7" wght="-3.2158266579636128" />
